{"learner":{"attributes":{"scikit_learn":"{\"_estimator_type\": \"regressor\"}"},"feature_names":[],"feature_types":[],"gradient_booster":{"model":{"gbtree_model_param":{"num_parallel_tree":"1","num_trees":"200"},"iteration_indptr":[0,1,2,3,4,5,6,7,8,9,10,11,12,13,14,15,16,17,18,19,20,21,22,23,24,25,26,27,28,29,30,31,32,33,34,35,36,37,38,39,40,41,42,43,44,45,46,47,48,49,50,51,52,53,54,55,56,57,58,59,60,61,62,63,64,65,66,67,68,69,70,71,72,73,74,75,76,77,78,79,80,81,82,83,84,85,86,87,88,89,90,91,92,93,94,95,96,97,98,99,100,101,102,103,104,105,106,107,108,109,110,111,112,113,114,115,116,117,118,119,120,121,122,123,124,125,126,127,128,129,130,131,132,133,134,135,136,137,138,139,140,141,142,143,144,145,146,147,148,149,150,151,152,153,154,155,156,157,158,159,160,161,162,163,164,165,166,167,168,169,170,171,172,173,174,175,176,177,178,179,180,181,182,183,184,185,186,187,188,189,190,191,192,193,194,195,196,197,198,199,200],"tree_info":[0,0,0,0,0,0,0,0,0,0,0,0,0,0,0,0,0,0,0,0,0,0,0,0,0,0,0,0,0,0,0,0,0,0,0,0,0,0,0,0,0,0,0,0,0,0,0,0,0,0,0,0,0,0,0,0,0,0,0,0,0,0,0,0,0,0,0,0,0,0,0,0,0,0,0,0,0,0,0,0,0,0,0,0,0,0,0,0,0,0,0,0,0,0,0,0,0,0,0,0,0,0,0,0,0,0,0,0,0,0,0,0,0,0,0,0,0,0,0,0,0,0,0,0,0,0,0,0,0,0,0,0,0,0,0,0,0,0,0,0,0,0,0,0,0,0,0,0,0,0,0,0,0,0,0,0,0,0,0,0,0,0,0,0,0,0,0,0,0,0,0,0,0,0,0,0,0,0,0,0,0,0,0,0,0,0,0,0,0,0,0,0,0,0,0,0,0,0,0,0],"trees":[{"base_weights":[-1.5544114E-8,3.8204037E1,-6.0538774E0,1.7834951E1,6.191089E1,-8.558831E0,1.0988881E1,5.7497554E0,3.463895E1,1.1275118E1,7.4446236E1,8.881382E0,-9.185907E0,4.6013184E0,5.0038857E1,-3.2144372E0,2.2096392E1,2.3466532E0,4.0522675E1,3.442123E0,6.1397198E1,8.053251E1,3.3214893E1,3.9408777E0,4.9203037E1,-9.498278E0,3.573175E0,-4.0157443E-1,2.293398E1,3.0853188E1,9.608274E1,1.7620949E1,-7.07257E0,5.3502472E1,1.3498509E1,-1.91417E0,6.657803E1,3.5056446E1,8.042497E1,-5.3352838E0,2.5261341E1,3.652267E1,1.0395695E2,8.7748665E1,4.030452E1,-9.765423E0,4.435998E1,1.2475684E0,2.856339E1,5.6651506E0,7.848852E1,-1.0287759E1,-7.9114447E0,-8.271307E-1,4.859653E1,-3.670856E0,9.52191E0,1.7994589E1,8.9325905E1,2.547084E1,9.3943085E1,1.0901349E2,3.3383423E1,5.0340986E-1,8.355708E-2,7.927272E-2,-8.152301E-2,8.3216214E-1,3.155956E-1,1.06937565E-1,3.8295707E-1,6.206439E-1,-4.8005346E-2,7.232091E-1,1.8931818E-1,1.4238456E-1,4.2528507E-1,1.0975207E0,5.132686E-1,-7.243581E-2,4.389747E-1,1.24983035E-1,9.1655606E-1,1.2519804E-1,6.647441E-1,1.271161E0,4.6110907E-1,6.6285414E-1,9.7778046E-1,2.5911215E-1,8.1099164E-1,-1.05003506E-1,-1.409095E-3,2.9216173E-1,7.512451E-1,1.775889E-1,-3.8536098E-3,1.0043722E-1,8.019881E-1,-1.9941567E-2,4.4460228E-1,9.8366237E-1,2.798361E-1,-9.173665E-2,-1.0665973E-1,5.525522E-2,-8.1858546E-2,-3.635566E-2,3.5352173E-1,9.4402367E-1,-2.4659175E-3,-5.4993123E-2,6.0981095E-2,8.0263935E-2,9.916137E-1,1.3978286E-1,8.6179876E-1,-6.452425E-2,1.0555781E0,4.9984196E-1,1.3989712E-1,1.0593034E0,2.6924236E-2,4.4567272E-1,1.1712635E0,1.5851231E-2,7.8583115E-1],"categories":[],"categories_nodes":[],"categories_segments":[],"categories_sizes":[],"default_left":[0,0,0,0,0,0,0,0,0,0,0,0,0,0,0,0,0,0,0,0,0,0,0,0,0,0,0,0,0,0,0,0,0,0,0,0,0,0,0,0,0,0,0,0,0,0,0,0,0,0,0,0,0,0,0,0,0,0,0,0,0,0,0,0,0,0,0,0,0,0,0,0,0,0,0,0,0,0,0,0,0,0,0,0,0,0,0,0,0,0,0,0,0,0,0,0,0,0,0,0,0,0,0,0,0,0,0,0,0,0,0,0,0,0,0,0,0,0,0,0,0,0,0,0,0,0,0],"id":0,"left_children":[1,3,5,7,9,11,13,15,17,19,21,23,25,27,29,31,33,35,37,39,41,43,45,47,49,51,53,55,57,59,61,63,65,67,69,71,73,75,77,79,81,83,85,87,89,91,93,95,97,99,101,103,105,107,109,111,113,115,117,119,121,123,125,-1,-1,-1,-1,-1,-1,-1,-1,-1,-1,-1,-1,-1,-1,-1,-1,-1,-1,-1,-1,-1,-1,-1,-1,-1,-1,-1,-1,-1,-1,-1,-1,-1,-1,-1,-1,-1,-1,-1,-1,-1,-1,-1,-1,-1,-1,-1,-1,-1,-1,-1,-1,-1,-1,-1,-1,-1,-1,-1,-1,-1,-1,-1,-1],"loss_changes":[4.626114E6,1.3200745E6,7.372024E5,2.989371E5,8.014685E5,1.6471738E5,5.517675E5,1.2579753E5,1.1694431E5,9.872537E4,2.515325E5,1.0399258E5,5.7952125E4,1.745454E5,2.7176762E5,4.4738676E4,8.136564E4,2.6400582E4,1.108185E5,4.207681E4,3.2197438E4,2.52501E5,6.366375E4,3.093396E4,7.223192E4,1.768925E4,6.898474E4,4.8569184E4,1.3219038E5,7.265256E4,7.0138875E4,2.5954207E4,7.660455E3,3.975414E4,1.6282473E4,1.7102498E4,2.725918E2,7.0949E4,4.727525E4,1.5068244E4,5.2240188E4,1.570309E4,1.0214555E4,1.543205E5,7.775372E4,1.9657324E2,4.6723812E4,1.1384732E4,4.318297E4,7.220102E3,3.1380734E4,3.8920625E3,1.7437969E4,3.2439623E4,6.937957E4,2.0146291E4,4.893931E4,1.0313329E5,4.421172E4,5.6996125E4,1.8310156E4,3.3993312E4,2.4309086E4,0E0,0E0,0E0,0E0,0E0,0E0,0E0,0E0,0E0,0E0,0E0,0E0,0E0,0E0,0E0,0E0,0E0,0E0,0E0,0E0,0E0,0E0,0E0,0E0,0E0,0E0,0E0,0E0,0E0,0E0,0E0,0E0,0E0,0E0,0E0,0E0,0E0,0E0,0E0,0E0,0E0,0E0,0E0,0E0,0E0,0E0,0E0,0E0,0E0,0E0,0E0,0E0,0E0,0E0,0E0,0E0,0E0,0E0,0E0,0E0,0E0,0E0,0E0,0E0],"parents":[2147483647,0,0,1,1,2,2,3,3,4,4,5,5,6,6,7,7,8,8,9,9,10,10,11,11,12,12,13,13,14,14,15,15,16,16,17,17,18,18,19,19,20,20,21,21,22,22,23,23,24,24,25,25,26,26,27,27,28,28,29,29,30,30,31,31,32,32,33,33,34,34,35,35,36,36,37,37,38,38,39,39,40,40,41,41,42,42,43,43,44,44,45,45,46,46,47,47,48,48,49,49,50,50,51,51,52,52,53,53,54,54,55,55,56,56,57,57,58,58,59,59,60,60,61,61,62,62],"right_children":[2,4,6,8,10,12,14,16,18,20,22,24,26,28,30,32,34,36,38,40,42,44,46,48,50,52,54,56,58,60,62,64,66,68,70,72,74,76,78,80,82,84,86,88,90,92,94,96,98,100,102,104,106,108,110,112,114,116,118,120,122,124,126,-1,-1,-1,-1,-1,-1,-1,-1,-1,-1,-1,-1,-1,-1,-1,-1,-1,-1,-1,-1,-1,-1,-1,-1,-1,-1,-1,-1,-1,-1,-1,-1,-1,-1,-1,-1,-1,-1,-1,-1,-1,-1,-1,-1,-1,-1,-1,-1,-1,-1,-1,-1,-1,-1,-1,-1,-1,-1,-1,-1,-1,-1,-1,-1],"split_conditions":[-4.4523236E-1,-2.7875613E-2,1.7464261E0,7.2131765E-1,7.2639227E-1,-4.5813808E-1,1.3803439E0,1.7873312E0,5.3340757E-1,5.1654524E-1,1.7170963E0,2.7657278E0,1.0429155E0,1.7081255E-1,-1.20592736E-1,-6.0306156E-1,-1.5587846E0,7.570675E-1,7.7282585E-2,8.6608386E-1,-1.3276122E0,-7.178675E-1,9.915982E-1,3.392962E-1,-4.9450842E-1,5.9640414E-1,1.5380683E0,2.2779398E0,2.1694353E0,1.4830458E0,5.6719947E-1,-1.4086542E0,-2.4929085E0,1.6633013E0,1.4243531E0,-1.6938876E0,1.269639E0,-4.805636E-1,-1.6630878E0,2.0215366E0,5.775778E-1,5.379522E-1,1.6856259E0,-9.6608406E-1,1.7697812E0,1.325409E0,2.6912692E-1,-4.1300952E-1,1.0233314E0,3.0394478E0,-5.9218302E-2,-6.610132E-1,-2.3520906E0,1.7414937E0,-2.2125788E0,1.0557709E0,4.7668234E-1,7.090191E-1,-1.413427E0,1.6185908E-1,-5.04731E-2,-6.1382926E-1,6.9638586E-1,5.0340986E-1,8.355708E-2,7.927272E-2,-8.152301E-2,8.3216214E-1,3.155956E-1,1.06937565E-1,3.8295707E-1,6.206439E-1,-4.8005346E-2,7.232091E-1,1.8931818E-1,1.4238456E-1,4.2528507E-1,1.0975207E0,5.132686E-1,-7.243581E-2,4.389747E-1,1.24983035E-1,9.1655606E-1,1.2519804E-1,6.647441E-1,1.271161E0,4.6110907E-1,6.6285414E-1,9.7778046E-1,2.5911215E-1,8.1099164E-1,-1.05003506E-1,-1.409095E-3,2.9216173E-1,7.512451E-1,1.775889E-1,-3.8536098E-3,1.0043722E-1,8.019881E-1,-1.9941567E-2,4.4460228E-1,9.8366237E-1,2.798361E-1,-9.173665E-2,-1.0665973E-1,5.525522E-2,-8.1858546E-2,-3.635566E-2,3.5352173E-1,9.4402367E-1,-2.4659175E-3,-5.4993123E-2,6.0981095E-2,8.0263935E-2,9.916137E-1,1.3978286E-1,8.6179876E-1,-6.452425E-2,1.0555781E0,4.9984196E-1,1.3989712E-1,1.0593034E0,2.6924236E-2,4.4567272E-1,1.1712635E0,1.5851231E-2,7.8583115E-1],"split_indices":[71,94,97,93,0,123,93,162,162,22,138,162,159,94,116,75,108,178,168,93,199,108,16,168,20,97,93,78,197,8,38,59,7,27,115,161,0,156,108,124,32,163,2,185,93,197,178,192,10,118,119,103,12,188,155,0,62,116,134,28,23,168,85,0,0,0,0,0,0,0,0,0,0,0,0,0,0,0,0,0,0,0,0,0,0,0,0,0,0,0,0,0,0,0,0,0,0,0,0,0,0,0,0,0,0,0,0,0,0,0,0,0,0,0,0,0,0,0,0,0,0,0,0,0,0,0,0],"split_type":[0,0,0,0,0,0,0,0,0,0,0,0,0,0,0,0,0,0,0,0,0,0,0,0,0,0,0,0,0,0,0,0,0,0,0,0,0,0,0,0,0,0,0,0,0,0,0,0,0,0,0,0,0,0,0,0,0,0,0,0,0,0,0,0,0,0,0,0,0,0,0,0,0,0,0,0,0,0,0,0,0,0,0,0,0,0,0,0,0,0,0,0,0,0,0,0,0,0,0,0,0,0,0,0,0,0,0,0,0,0,0,0,0,0,0,0,0,0,0,0,0,0,0,0,0,0,0],"sum_hessian":[2E4,2.735E3,1.7265E4,1.472E3,1.263E3,1.5053E4,2.212E3,8.57E2,6.15E2,2.51E2,1.012E3,5.22E2,1.4531E4,1.902E3,3.1E2,5.54E2,3.03E2,9.5E1,5.2E2,2.18E2,3.3E1,8.81E2,1.31E2,4.66E2,5.6E1,1.4184E4,3.47E2,1.495E3,4.07E2,2.2E2,9E1,8.6E1,4.68E2,6.4E1,2.39E2,9E1,5E0,4.59E2,6.1E1,1.56E2,6.2E1,2.2E1,1.1E1,7.46E2,1.35E2,2.7E1,1.04E2,4.21E2,4.5E1,2.3E1,3.3E1,9.468E3,4.716E3,3.17E2,3E1,1.125E3,3.7E2,3.8E2,2.7E1,2.04E2,1.6E1,7.4E1,1.6E1,1.8E1,6.8E1,3.1E1,4.37E2,2.6E1,3.8E1,2.16E2,2.3E1,3E0,8.7E1,4E0,1E0,1.22E2,3.37E2,2.9E1,3.2E1,1.51E2,5E0,5.3E1,9E0,1.3E1,9E0,7E0,4E0,2.4E2,5.06E2,1.01E2,3.4E1,2.5E1,2E0,7.1E1,3.3E1,3.7E1,3.84E2,3.4E1,1.1E1,2E1,3E0,2.3E1,1E1,2.406E3,7.062E3,9.4E1,4.622E3,2.95E2,2.2E1,1.5E1,1.5E1,9.48E2,1.77E2,3.65E2,5E0,3.6E2,2E1,4E0,2.3E1,6.4E1,1.4E2,1.4E1,2E0,9E0,6.5E1,1E1,6E0],"tree_param":{"num_deleted":"0","num_feature":"200","num_nodes":"127","size_leaf_vector":"1"}},{"base_weights":[1.2242029E-3,3.782692E1,-5.9927006E0,1.7660597E1,6.1297775E1,-8.47299E0,1.0882252E1,5.6948485E0,3.4298508E1,1.1177962E1,7.3705376E1,8.797854E0,-9.093977E0,4.5569186E0,4.9551796E1,-3.181239E0,2.1880816E1,2.3386571E0,4.012163E1,3.414131E0,6.085741E1,7.9730255E1,3.2889843E1,3.9037738E0,4.8740623E1,-9.40331E0,3.5410604E0,-3.9683834E-1,2.2709524E1,3.0552465E1,9.514849E1,1.7451487E1,-7.0018487E0,1.1009251E2,1.8816416E1,-1.8887357E0,6.606434E1,3.4707115E1,7.9646706E1,-5.279597E0,2.5025259E1,3.6191788E1,1.0306173E2,8.6873375E1,3.9909344E1,-9.671569E0,4.392632E1,1.2355049E0,2.8297375E1,5.626193E0,7.774079E1,-1.0184901E1,-7.8323355E0,-8.178617E-1,4.8140934E1,-3.6341424E0,9.42958E0,1.7817272E1,8.846804E1,2.5219252E1,9.306755E1,1.0794491E2,3.3096745E1,4.9864075E-1,8.2733616E-2,7.850477E-2,-8.0709636E-2,1.1813077E0,1.887402E-1,3.5108054E-1,1.0153717E-1,6.159891E-1,-4.7530744E-2,7.174234E-1,1.8837158E-1,1.409723E-1,4.210448E-1,1.0869113E0,5.082914E-1,-7.171623E-2,4.3531662E-1,1.2375635E-1,9.08307E-1,1.2403548E-1,6.5876144E-1,3.4012638E-2,1.1181257E0,6.562531E-1,9.680219E-1,2.565464E-1,8.031134E-1,-1.03993855E-1,-1.3996982E-3,2.8928068E-1,7.439536E-1,1.7585975E-1,-3.8151692E-3,1.4951347E-1,1.0051792E0,-1.9751647E-2,4.4126773E-1,9.742356E-1,2.7729213E-1,-9.0819664E-2,-1.0559328E-1,5.4708496E-2,-8.1040144E-2,-3.5993326E-2,3.501402E-1,9.351734E-1,-2.4427944E-3,-5.4443773E-2,6.037471E-2,7.94635E-2,9.833502E-1,1.383889E-1,8.5359114E-1,-6.400805E-2,1.0454621E0,4.949204E-1,1.3850808E-1,1.0494165E0,2.674474E-2,4.416617E-1,1.1597283E0,1.5707135E-2,7.790955E-1],"categories":[],"categories_nodes":[],"categories_segments":[],"categories_sizes":[],"default_left":[0,0,0,0,0,0,0,0,0,0,0,0,0,0,0,0,0,0,0,0,0,0,0,0,0,0,0,0,0,0,0,0,0,0,0,0,0,0,0,0,0,0,0,0,0,0,0,0,0,0,0,0,0,0,0,0,0,0,0,0,0,0,0,0,0,0,0,0,0,0,0,0,0,0,0,0,0,0,0,0,0,0,0,0,0,0,0,0,0,0,0,0,0,0,0,0,0,0,0,0,0,0,0,0,0,0,0,0,0,0,0,0,0,0,0,0,0,0,0,0,0,0,0,0,0,0,0],"id":1,"left_children":[1,3,5,7,9,11,13,15,17,19,21,23,25,27,29,31,33,35,37,39,41,43,45,47,49,51,53,55,57,59,61,63,65,67,69,71,73,75,77,79,81,83,85,87,89,91,93,95,97,99,101,103,105,107,109,111,113,115,117,119,121,123,125,-1,-1,-1,-1,-1,-1,-1,-1,-1,-1,-1,-1,-1,-1,-1,-1,-1,-1,-1,-1,-1,-1,-1,-1,-1,-1,-1,-1,-1,-1,-1,-1,-1,-1,-1,-1,-1,-1,-1,-1,-1,-1,-1,-1,-1,-1,-1,-1,-1,-1,-1,-1,-1,-1,-1,-1,-1,-1,-1,-1,-1,-1,-1,-1],"loss_changes":[4.534941E6,1.2939232E6,7.227566E5,2.9305697E5,7.852155E5,1.6153362E5,5.4106906E5,1.2333679E5,1.1454756E5,9.698934E4,2.46483E5,1.0204741E5,5.683075E4,1.7113362E5,2.665143E5,4.3872617E4,8.010447E4,2.598655E4,1.0873444E5,4.1278117E4,3.1663875E4,2.474145E5,6.242892E4,3.0361459E4,7.083117E4,1.73375E4,6.769314E4,4.7623684E4,1.2968028E5,7.133569E4,6.8685E4,2.5468807E4,7.510543E3,5.102789E3,4.1276742E4,1.6841146E4,2.5751562E2,6.953744E4,4.6368688E4,1.4811484E4,5.1318004E4,1.5424086E4,1.0085055E4,1.512405E5,7.626455E4,1.927876E2,4.5831E4,1.1163996E4,4.2834555E4,7.110918E3,3.0767E4,3.8145E3,1.7092469E4,3.1819607E4,6.8084805E4,1.974676E4,4.8141332E4,1.011962E5,4.3378062E4,5.5882992E4,1.7966078E4,3.3278688E4,2.389471E4,0E0,0E0,0E0,0E0,0E0,0E0,0E0,0E0,0E0,0E0,0E0,0E0,0E0,0E0,0E0,0E0,0E0,0E0,0E0,0E0,0E0,0E0,0E0,0E0,0E0,0E0,0E0,0E0,0E0,0E0,0E0,0E0,0E0,0E0,0E0,0E0,0E0,0E0,0E0,0E0,0E0,0E0,0E0,0E0,0E0,0E0,0E0,0E0,0E0,0E0,0E0,0E0,0E0,0E0,0E0,0E0,0E0,0E0,0E0,0E0,0E0,0E0,0E0,0E0],"parents":[2147483647,0,0,1,1,2,2,3,3,4,4,5,5,6,6,7,7,8,8,9,9,10,10,11,11,12,12,13,13,14,14,15,15,16,16,17,17,18,18,19,19,20,20,21,21,22,22,23,23,24,24,25,25,26,26,27,27,28,28,29,29,30,30,31,31,32,32,33,33,34,34,35,35,36,36,37,37,38,38,39,39,40,40,41,41,42,42,43,43,44,44,45,45,46,46,47,47,48,48,49,49,50,50,51,51,52,52,53,53,54,54,55,55,56,56,57,57,58,58,59,59,60,60,61,61,62,62],"right_children":[2,4,6,8,10,12,14,16,18,20,22,24,26,28,30,32,34,36,38,40,42,44,46,48,50,52,54,56,58,60,62,64,66,68,70,72,74,76,78,80,82,84,86,88,90,92,94,96,98,100,102,104,106,108,110,112,114,116,118,120,122,124,126,-1,-1,-1,-1,-1,-1,-1,-1,-1,-1,-1,-1,-1,-1,-1,-1,-1,-1,-1,-1,-1,-1,-1,-1,-1,-1,-1,-1,-1,-1,-1,-1,-1,-1,-1,-1,-1,-1,-1,-1,-1,-1,-1,-1,-1,-1,-1,-1,-1,-1,-1,-1,-1,-1,-1,-1,-1,-1,-1,-1,-1,-1,-1,-1],"split_conditions":[-4.4523236E-1,-2.7875613E-2,1.7464261E0,7.2131765E-1,7.2639227E-1,-4.5813808E-1,1.3803439E0,1.7873312E0,5.3340757E-1,5.1654524E-1,1.7170963E0,2.7657278E0,1.0429155E0,1.7081255E-1,-1.20592736E-1,-6.0306156E-1,-2.2950342E0,7.570675E-1,7.7282585E-2,8.6608386E-1,-1.3276122E0,-7.178675E-1,9.915982E-1,3.392962E-1,-4.9450842E-1,5.9640414E-1,1.5380683E0,2.2779398E0,2.1694353E0,1.4830458E0,5.6719947E-1,-1.4086542E0,-2.4929085E0,8.4923327E-1,-1.2174356E0,-1.6938876E0,1.269639E0,-4.805636E-1,-1.6630878E0,2.0215366E0,5.775778E-1,5.379522E-1,1.0120085E0,-9.6608406E-1,1.7697812E0,1.325409E0,2.6912692E-1,-4.1300952E-1,5.4369575E-1,3.0394478E0,-5.9218302E-2,-6.610132E-1,-2.3520906E0,1.7414937E0,-2.2125788E0,1.0557709E0,4.7668234E-1,7.090191E-1,-1.413427E0,1.6185908E-1,-5.04731E-2,-6.1382926E-1,6.9638586E-1,4.9864075E-1,8.2733616E-2,7.850477E-2,-8.0709636E-2,1.1813077E0,1.887402E-1,3.5108054E-1,1.0153717E-1,6.159891E-1,-4.7530744E-2,7.174234E-1,1.8837158E-1,1.409723E-1,4.210448E-1,1.0869113E0,5.082914E-1,-7.171623E-2,4.3531662E-1,1.2375635E-1,9.08307E-1,1.2403548E-1,6.5876144E-1,3.4012638E-2,1.1181257E0,6.562531E-1,9.680219E-1,2.565464E-1,8.031134E-1,-1.03993855E-1,-1.3996982E-3,2.8928068E-1,7.439536E-1,1.7585975E-1,-3.8151692E-3,1.4951347E-1,1.0051792E0,-1.9751647E-2,4.4126773E-1,9.742356E-1,2.7729213E-1,-9.0819664E-2,-1.0559328E-1,5.4708496E-2,-8.1040144E-2,-3.5993326E-2,3.501402E-1,9.351734E-1,-2.4427944E-3,-5.4443773E-2,6.037471E-2,7.94635E-2,9.833502E-1,1.383889E-1,8.5359114E-1,-6.400805E-2,1.0454621E0,4.949204E-1,1.3850808E-1,1.0494165E0,2.674474E-2,4.416617E-1,1.1597283E0,1.5707135E-2,7.790955E-1],"split_indices":[71,94,97,93,0,123,93,162,162,22,138,162,159,94,116,75,194,178,168,93,199,108,16,168,20,97,93,78,197,8,38,59,7,1,108,161,0,156,108,124,32,163,16,185,93,197,178,192,6,118,119,103,12,188,155,0,62,116,134,28,23,168,85,0,0,0,0,0,0,0,0,0,0,0,0,0,0,0,0,0,0,0,0,0,0,0,0,0,0,0,0,0,0,0,0,0,0,0,0,0,0,0,0,0,0,0,0,0,0,0,0,0,0,0,0,0,0,0,0,0,0,0,0,0,0,0,0],"split_type":[0,0,0,0,0,0,0,0,0,0,0,0,0,0,0,0,0,0,0,0,0,0,0,0,0,0,0,0,0,0,0,0,0,0,0,0,0,0,0,0,0,0,0,0,0,0,0,0,0,0,0,0,0,0,0,0,0,0,0,0,0,0,0,0,0,0,0,0,0,0,0,0,0,0,0,0,0,0,0,0,0,0,0,0,0,0,0,0,0,0,0,0,0,0,0,0,0,0,0,0,0,0,0,0,0,0,0,0,0,0,0,0,0,0,0,0,0,0,0,0,0,0,0,0,0,0,0],"sum_hessian":[2E4,2.735E3,1.7265E4,1.472E3,1.263E3,1.5053E4,2.212E3,8.57E2,6.15E2,2.51E2,1.012E3,5.22E2,1.4531E4,1.902E3,3.1E2,5.54E2,3.03E2,9.5E1,5.2E2,2.18E2,3.3E1,8.81E2,1.31E2,4.66E2,5.6E1,1.4184E4,3.47E2,1.495E3,4.07E2,2.2E2,9E1,8.6E1,4.68E2,9E0,2.94E2,9E1,5E0,4.59E2,6.1E1,1.56E2,6.2E1,2.2E1,1.1E1,7.46E2,1.35E2,2.7E1,1.04E2,4.21E2,4.5E1,2.3E1,3.3E1,9.468E3,4.716E3,3.17E2,3E1,1.125E3,3.7E2,3.8E2,2.7E1,2.04E2,1.6E1,7.4E1,1.6E1,1.8E1,6.8E1,3.1E1,4.37E2,8E0,1E0,1.01E2,1.93E2,3E0,8.7E1,4E0,1E0,1.22E2,3.37E2,2.9E1,3.2E1,1.51E2,5E0,5.3E1,9E0,1.3E1,9E0,1E0,1E1,2.4E2,5.06E2,1.01E2,3.4E1,2.5E1,2E0,7.1E1,3.3E1,3.7E1,3.84E2,3.9E1,6E0,2E1,3E0,2.3E1,1E1,2.406E3,7.062E3,9.4E1,4.622E3,2.95E2,2.2E1,1.5E1,1.5E1,9.48E2,1.77E2,3.65E2,5E0,3.6E2,2E1,4E0,2.3E1,6.4E1,1.4E2,1.4E1,2E0,9E0,6.5E1,1E1,6E0],"tree_param":{"num_deleted":"0","num_feature":"200","num_nodes":"127","size_leaf_vector":"1"}},{"base_weights":[2.4190876E-3,3.7453392E1,-5.9321265E0,1.7488089E1,6.0690292E1,-8.387993E0,1.0776659E1,7.3841896E0,3.684094E1,1.1079399E1,7.2971886E1,8.715611E0,-9.002967E0,4.5129476E0,4.9069477E1,-8.81996E-1,2.2473152E1,2.8264852E0,4.267445E1,3.3863623E0,6.0305744E1,6.2401127E1,9.619724E1,3.8675766E0,4.828257E1,-9.309293E0,3.5092328E0,-3.9215595E-1,2.2487267E1,3.0254677E1,9.422334E1,2.279655E1,-5.525821E0,1.09128586E2,1.9811394E1,-2.0261357E0,7.1168405E-1,3.636522E1,8.108043E1,-5.2244844E0,2.4791388E1,3.5863907E1,1.0212712E2,3.568635E1,8.00624E1,1.0385903E2,3.3933388E1,1.2235571E0,2.8039503E1,5.5874944E0,7.700019E1,-1.0083074E1,-7.754018E0,-8.086951E-1,4.7689613E1,-3.597796E0,9.338148E0,1.7641703E1,8.7618416E1,2.497015E1,9.220017E1,1.0688681E2,3.281253E1,1.6597876E-1,6.8420005E-1,-7.424736E-2,1.3944517E-1,1.1708072E0,1.8779649E-1,2.844981E-1,5.1403623E-2,4.191339E-1,-5.989939E-2,1.9813095E-1,4.6042055E-1,1.1430911E0,5.407968E-1,-7.100378E-2,4.3168893E-1,1.225417E-1,9.001322E-1,1.22883715E-1,6.5283257E-1,1.2502546E0,4.5064345E-1,5.48412E-1,1.283966E-1,6.865972E-1,1.0799694E0,7.366403E-1,1.1454664E0,9.632812E-2,1.057648E0,1.7414743E-1,-3.7771214E-3,9.752018E-2,7.904138E-1,-4.0652674E-2,3.5223326E-1,9.9573535E-1,3.2876045E-1,-8.991185E-2,-1.045375E-1,5.4167166E-2,-8.022991E-2,-3.5634607E-2,3.4679103E-1,9.2640615E-1,-2.4198955E-3,-5.389991E-2,5.9774365E-2,7.867102E-2,9.751556E-1,1.3700885E-1,8.454617E-1,-6.3495986E-2,1.0354431E0,4.9004737E-1,1.3713282E-1,1.0396221E0,2.656644E-2,4.376867E-1,1.1483067E0,1.5564346E-2,7.724175E-1],"categories":[],"categories_nodes":[],"categories_segments":[],"categories_sizes":[],"default_left":[0,0,0,0,0,0,0,0,0,0,0,0,0,0,0,0,0,0,0,0,0,0,0,0,0,0,0,0,0,0,0,0,0,0,0,0,0,0,0,0,0,0,0,0,0,0,0,0,0,0,0,0,0,0,0,0,0,0,0,0,0,0,0,0,0,0,0,0,0,0,0,0,0,0,0,0,0,0,0,0,0,0,0,0,0,0,0,0,0,0,0,0,0,0,0,0,0,0,0,0,0,0,0,0,0,0,0,0,0,0,0,0,0,0,0,0,0,0,0,0,0,0,0,0,0],"id":2,"left_children":[1,3,5,7,9,11,13,15,17,19,21,23,25,27,29,31,33,35,37,39,41,43,45,47,49,51,53,55,57,59,61,63,65,67,69,71,-1,73,75,77,79,81,83,85,87,89,91,93,95,97,99,101,103,105,107,109,111,113,115,117,119,121,123,-1,-1,-1,-1,-1,-1,-1,-1,-1,-1,-1,-1,-1,-1,-1,-1,-1,-1,-1,-1,-1,-1,-1,-1,-1,-1,-1,-1,-1,-1,-1,-1,-1,-1,-1,-1,-1,-1,-1,-1,-1,-1,-1,-1,-1,-1,-1,-1,-1,-1,-1,-1,-1,-1,-1,-1,-1,-1,-1,-1,-1,-1],"loss_changes":[4.4455345E6,1.268256E6,7.0859294E5,2.8775722E5,7.69348E5,1.584205E5,5.3057806E5,1.2088141E5,1.0008344E5,9.522821E4,2.426985E5,1.0013616E5,5.573125E4,1.6778852E5,2.6136275E5,6.907029E4,7.6952984E4,2.5017002E4,1.01488E5,4.0494594E4,3.109182E4,3.2694275E5,1.46747E5,2.9812154E4,6.9457516E4,1.69925E4,6.642573E4,4.669661E4,1.2721784E5,7.00427E4,6.7261125E4,2.7993281E4,1.9514102E4,4.9859375E3,4.218308E4,1.2616963E4,0E0,5.8671812E4,4.7650156E4,1.45591045E4,5.0412082E4,1.5150047E4,1.0045539E4,1.2183084E5,1.2636725E5,8.19215E4,6.1820797E4,1.0947541E4,4.2133203E4,7.0088154E3,3.0591438E4,3.7385E3,1.6753844E4,3.121144E4,6.68142E4,1.9355152E4,4.7356348E4,9.929549E4,4.2560188E4,5.4791594E4,1.7628438E4,3.2579062E4,2.348741E4,0E0,0E0,0E0,0E0,0E0,0E0,0E0,0E0,0E0,0E0,0E0,0E0,0E0,0E0,0E0,0E0,0E0,0E0,0E0,0E0,0E0,0E0,0E0,0E0,0E0,0E0,0E0,0E0,0E0,0E0,0E0,0E0,0E0,0E0,0E0,0E0,0E0,0E0,0E0,0E0,0E0,0E0,0E0,0E0,0E0,0E0,0E0,0E0,0E0,0E0,0E0,0E0,0E0,0E0,0E0,0E0,0E0,0E0,0E0,0E0,0E0,0E0],"parents":[2147483647,0,0,1,1,2,2,3,3,4,4,5,5,6,6,7,7,8,8,9,9,10,10,11,11,12,12,13,13,14,14,15,15,16,16,17,17,18,18,19,19,20,20,21,21,22,22,23,23,24,24,25,25,26,26,27,27,28,28,29,29,30,30,31,31,32,32,33,33,34,34,35,35,37,37,38,38,39,39,40,40,41,41,42,42,43,43,44,44,45,45,46,46,47,47,48,48,49,49,50,50,51,51,52,52,53,53,54,54,55,55,56,56,57,57,58,58,59,59,60,60,61,61,62,62],"right_children":[2,4,6,8,10,12,14,16,18,20,22,24,26,28,30,32,34,36,38,40,42,44,46,48,50,52,54,56,58,60,62,64,66,68,70,72,-1,74,76,78,80,82,84,86,88,90,92,94,96,98,100,102,104,106,108,110,112,114,116,118,120,122,124,-1,-1,-1,-1,-1,-1,-1,-1,-1,-1,-1,-1,-1,-1,-1,-1,-1,-1,-1,-1,-1,-1,-1,-1,-1,-1,-1,-1,-1,-1,-1,-1,-1,-1,-1,-1,-1,-1,-1,-1,-1,-1,-1,-1,-1,-1,-1,-1,-1,-1,-1,-1,-1,-1,-1,-1,-1,-1,-1,-1,-1,-1],"split_conditions":[-4.4523236E-1,-2.7875613E-2,1.7464261E0,9.8296875E-1,7.2639227E-1,-4.5813808E-1,1.3803439E0,1.7873312E0,5.3340757E-1,5.1654524E-1,-1.4955169E0,2.7657278E0,1.0429155E0,1.7081255E-1,-1.20592736E-1,-2.4929085E0,-2.2950342E0,7.570675E-1,7.7282585E-2,8.6608386E-1,-1.3276122E0,2.2145553E0,3.3256945E-1,3.392962E-1,-4.9450842E-1,5.9640414E-1,1.5380683E0,2.2779398E0,2.1694353E0,1.4830458E0,5.6719947E-1,2.6328478E0,2.1422002E0,8.4923327E-1,-4.8945868E-1,-2.6226168E0,7.1168405E-1,-1.6167203E0,5.427835E-1,2.0215366E0,5.775778E-1,5.379522E-1,1.6856259E0,-2.4690695E-2,-9.95996E-1,5.858658E-1,1.8164693E0,-4.1300952E-1,1.0233314E0,1.8188591E-1,1.189815E0,-6.610132E-1,-2.3520906E0,1.7414937E0,-2.2125788E0,1.0557709E0,4.7668234E-1,7.090191E-1,-1.413427E0,1.6185908E-1,-5.04731E-2,-6.1382926E-1,6.9638586E-1,1.6597876E-1,6.8420005E-1,-7.424736E-2,1.3944517E-1,1.1708072E0,1.8779649E-1,2.844981E-1,5.1403623E-2,4.191339E-1,-5.989939E-2,1.9813095E-1,4.6042055E-1,1.1430911E0,5.407968E-1,-7.100378E-2,4.3168893E-1,1.225417E-1,9.001322E-1,1.22883715E-1,6.5283257E-1,1.2502546E0,4.5064345E-1,5.48412E-1,1.283966E-1,6.865972E-1,1.0799694E0,7.366403E-1,1.1454664E0,9.632812E-2,1.057648E0,1.7414743E-1,-3.7771214E-3,9.752018E-2,7.904138E-1,-4.0652674E-2,3.5223326E-1,9.9573535E-1,3.2876045E-1,-8.991185E-2,-1.045375E-1,5.4167166E-2,-8.022991E-2,-3.5634607E-2,3.4679103E-1,9.2640615E-1,-2.4198955E-3,-5.389991E-2,5.9774365E-2,7.867102E-2,9.751556E-1,1.3700885E-1,8.454617E-1,-6.3495986E-2,1.0354431E0,4.9004737E-1,1.3713282E-1,1.0396221E0,2.656644E-2,4.376867E-1,1.1483067E0,1.5564346E-2,7.724175E-1],"split_indices":[71,94,97,93,0,123,93,162,162,22,199,162,159,94,116,7,194,178,168,93,199,162,50,168,20,97,93,78,197,8,38,56,56,1,108,155,0,185,164,124,32,163,2,50,100,188,97,192,10,90,164,103,12,188,155,0,62,116,134,28,23,168,85,0,0,0,0,0,0,0,0,0,0,0,0,0,0,0,0,0,0,0,0,0,0,0,0,0,0,0,0,0,0,0,0,0,0,0,0,0,0,0,0,0,0,0,0,0,0,0,0,0,0,0,0,0,0,0,0,0,0,0,0,0,0],"split_type":[0,0,0,0,0,0,0,0,0,0,0,0,0,0,0,0,0,0,0,0,0,0,0,0,0,0,0,0,0,0,0,0,0,0,0,0,0,0,0,0,0,0,0,0,0,0,0,0,0,0,0,0,0,0,0,0,0,0,0,0,0,0,0,0,0,0,0,0,0,0,0,0,0,0,0,0,0,0,0,0,0,0,0,0,0,0,0,0,0,0,0,0,0,0,0,0,0,0,0,0,0,0,0,0,0,0,0,0,0,0,0,0,0,0,0,0,0,0,0,0,0,0,0,0,0],"sum_hessian":[2E4,2.735E3,1.7265E4,1.472E3,1.263E3,1.5053E4,2.212E3,9.68E2,5.04E2,2.51E2,1.012E3,5.22E2,1.4531E4,1.902E3,3.1E2,6.26E2,3.42E2,7.4E1,4.3E2,2.18E2,3.3E1,6.98E2,3.14E2,4.66E2,5.6E1,1.4184E4,3.47E2,1.495E3,4.07E2,2.2E2,9E1,1.02E2,5.24E2,9E0,3.33E2,7E1,4E0,3.71E2,5.9E1,1.56E2,6.2E1,2.2E1,1.1E1,2.79E2,4.19E2,2.79E2,3.5E1,4.21E2,4.5E1,2.3E1,3.3E1,9.468E3,4.716E3,3.17E2,3E1,1.125E3,3.7E2,3.8E2,2.7E1,2.04E2,1.6E1,7.4E1,1.6E1,9.1E1,1.1E1,4.78E2,4.6E1,8E0,1E0,2.09E2,1.24E2,5E0,6.5E1,1.38E2,2.33E2,2.5E1,3.4E1,1.51E2,5E0,5.3E1,9E0,1.3E1,9E0,7E0,4E0,1.51E2,1.28E2,3E2,1.19E2,7.5E1,2.04E2,2.7E1,8E0,3.7E1,3.84E2,3.4E1,1.1E1,1.8E1,5E0,2.1E1,1.2E1,2.406E3,7.062E3,9.4E1,4.622E3,2.95E2,2.2E1,1.5E1,1.5E1,9.48E2,1.77E2,3.65E2,5E0,3.6E2,2E1,4E0,2.3E1,6.4E1,1.4E2,1.4E1,2E0,9E0,6.5E1,1E1,6E0],"tree_param":{"num_deleted":"0","num_feature":"200","num_nodes":"125","size_leaf_vector":"1"}},{"base_weights":[3.7026491E-3,3.7084473E1,-5.87218E0,1.7317297E1,6.0090775E1,-8.303866E0,1.0672092E1,7.3130407E0,3.647929E1,1.0983923E1,7.2247574E1,8.633607E0,-8.912867E0,4.469402E0,4.859186E1,-8.717161E-1,2.225336E1,2.812499E0,4.225314E1,3.3588161E0,5.9775528E1,7.817979E1,3.2062275E1,3.8311672E0,4.7828445E1,-9.216215E0,3.4776902E0,-3.8752624E-1,2.2267183E1,2.9959793E1,9.330719E1,2.257684E1,-5.470439E0,1.08173164E2,1.9614285E1,-2.000815E0,7.059906E-1,3.6003338E1,8.029769E1,-5.169942E0,2.4559708E1,3.5538994E1,1.0124759E2,8.521358E1,3.8970802E1,-9.841056E0,4.293114E1,1.2117255E0,2.7778412E1,5.5446014E0,7.626914E1,-9.982263E0,-7.6764827E0,-7.9962903E-1,4.7242523E1,-3.5618129E0,9.247606E0,1.7467865E1,8.677694E1,2.4723507E1,9.13409E1,1.0583909E2,3.2530758E1,1.6433701E-1,6.779282E-1,-7.350644E-2,1.3808039E-1,1.1604E0,1.868575E-1,2.8166667E-1,5.089369E-2,4.1564113E-1,-5.9309475E-2,1.961639E-1,4.5583606E-1,1.1320999E0,5.355434E-1,-7.029841E-2,4.280916E-1,1.21338986E-1,8.920311E-1,1.2174266E-1,6.469571E-1,1.2393149E0,4.4703826E-1,6.4299405E-1,9.498695E-1,2.4913566E-1,7.882415E-1,-1.0572141E-1,-2.2463447E-3,2.8089952E-1,7.309686E-1,1.4043915E-1,-7.900411E-3,1.4589234E-1,9.91768E-1,-1.9550549E-2,4.3531644E-1,9.575799E-1,2.6814452E-1,-8.90131E-2,-1.0349227E-1,5.36312E-2,-7.9427786E-2,-3.527946E-2,3.434739E-1,9.177211E-1,-2.397217E-3,-5.3361483E-2,5.9179973E-2,7.788646E-2,9.6702933E-1,1.3564256E-1,8.3740973E-1,-6.298802E-2,1.0255201E0,4.8522228E-1,1.3577123E-1,1.0299189E0,2.6389338E-2,1.2839754E0,8.04954E-1,1.54228555E-2,7.657968E-1],"categories":[],"categories_nodes":[],"categories_segments":[],"categories_sizes":[],"default_left":[0,0,0,0,0,0,0,0,0,0,0,0,0,0,0,0,0,0,0,0,0,0,0,0,0,0,0,0,0,0,0,0,0,0,0,0,0,0,0,0,0,0,0,0,0,0,0,0,0,0,0,0,0,0,0,0,0,0,0,0,0,0,0,0,0,0,0,0,0,0,0,0,0,0,0,0,0,0,0,0,0,0,0,0,0,0,0,0,0,0,0,0,0,0,0,0,0,0,0,0,0,0,0,0,0,0,0,0,0,0,0,0,0,0,0,0,0,0,0,0,0,0,0,0,0],"id":3,"left_children":[1,3,5,7,9,11,13,15,17,19,21,23,25,27,29,31,33,35,37,39,41,43,45,47,49,51,53,55,57,59,61,63,65,67,69,71,-1,73,75,77,79,81,83,85,87,89,91,93,95,97,99,101,103,105,107,109,111,113,115,117,119,121,123,-1,-1,-1,-1,-1,-1,-1,-1,-1,-1,-1,-1,-1,-1,-1,-1,-1,-1,-1,-1,-1,-1,-1,-1,-1,-1,-1,-1,-1,-1,-1,-1,-1,-1,-1,-1,-1,-1,-1,-1,-1,-1,-1,-1,-1,-1,-1,-1,-1,-1,-1,-1,-1,-1,-1,-1,-1,-1,-1,-1,-1,-1],"loss_changes":[4.3580805E6,1.2432092E6,6.9470806E5,2.821095E5,7.537915E5,1.5535794E5,5.2029062E5,1.185115E5,9.8046625E4,9.355361E4,2.389805E5,9.82615E4,5.4652875E4,1.6450881E5,2.5631081E5,6.773505E4,7.5653125E4,2.4612107E4,9.958825E4,3.9725957E4,3.0576492E4,2.39924E5,6.054078E4,2.926051E4,6.812429E4,1.665475E4,6.518204E4,4.578761E4,1.2480217E5,6.877309E4,6.58665E4,2.7496023E4,1.913143E4,4.871539E3,4.1347008E4,1.2402846E4,0E0,5.7506594E4,4.674822E4,1.4311035E4,4.9522152E4,1.4880873E4,9.851383E3,1.465805E5,7.422722E4,1.944768E2,4.495472E4,1.085103E4,4.1870645E4,6.922462E3,3.0202031E4,3.6639375E3,1.6421906E4,3.0614898E4,6.5567305E4,1.8971312E4,4.658414E4,9.743046E4,4.1757688E4,5.37215E4,1.729714E4,3.2543188E4,2.308704E4,0E0,0E0,0E0,0E0,0E0,0E0,0E0,0E0,0E0,0E0,0E0,0E0,0E0,0E0,0E0,0E0,0E0,0E0,0E0,0E0,0E0,0E0,0E0,0E0,0E0,0E0,0E0,0E0,0E0,0E0,0E0,0E0,0E0,0E0,0E0,0E0,0E0,0E0,0E0,0E0,0E0,0E0,0E0,0E0,0E0,0E0,0E0,0E0,0E0,0E0,0E0,0E0,0E0,0E0,0E0,0E0,0E0,0E0,0E0,0E0,0E0,0E0],"parents":[2147483647,0,0,1,1,2,2,3,3,4,4,5,5,6,6,7,7,8,8,9,9,10,10,11,11,12,12,13,13,14,14,15,15,16,16,17,17,18,18,19,19,20,20,21,21,22,22,23,23,24,24,25,25,26,26,27,27,28,28,29,29,30,30,31,31,32,32,33,33,34,34,35,35,37,37,38,38,39,39,40,40,41,41,42,42,43,43,44,44,45,45,46,46,47,47,48,48,49,49,50,50,51,51,52,52,53,53,54,54,55,55,56,56,57,57,58,58,59,59,60,60,61,61,62,62],"right_children":[2,4,6,8,10,12,14,16,18,20,22,24,26,28,30,32,34,36,38,40,42,44,46,48,50,52,54,56,58,60,62,64,66,68,70,72,-1,74,76,78,80,82,84,86,88,90,92,94,96,98,100,102,104,106,108,110,112,114,116,118,120,122,124,-1,-1,-1,-1,-1,-1,-1,-1,-1,-1,-1,-1,-1,-1,-1,-1,-1,-1,-1,-1,-1,-1,-1,-1,-1,-1,-1,-1,-1,-1,-1,-1,-1,-1,-1,-1,-1,-1,-1,-1,-1,-1,-1,-1,-1,-1,-1,-1,-1,-1,-1,-1,-1,-1,-1,-1,-1,-1,-1,-1,-1,-1],"split_conditions":[-4.4523236E-1,-2.7875613E-2,1.7464261E0,9.8296875E-1,7.2639227E-1,-4.5813808E-1,1.3803439E0,1.7873312E0,5.3340757E-1,5.1654524E-1,1.7170963E0,2.7657278E0,1.0429155E0,1.7081255E-1,-1.20592736E-1,-2.4929085E0,-2.2950342E0,7.570675E-1,7.7282585E-2,8.6608386E-1,-1.3276122E0,-7.178675E-1,9.915982E-1,3.392962E-1,-4.9450842E-1,5.9640414E-1,1.5380683E0,2.2779398E0,2.1694353E0,1.4830458E0,5.6719947E-1,2.6328478E0,2.1422002E0,8.4923327E-1,-4.8945868E-1,-2.6226168E0,7.059906E-1,-1.6167203E0,5.427835E-1,2.0215366E0,5.775778E-1,5.379522E-1,1.6856259E0,-9.6608406E-1,1.7697812E0,1.325409E0,2.6912692E-1,-1.5369893E0,5.4369575E-1,3.0394478E0,-5.9218302E-2,-6.610132E-1,-2.3520906E0,1.7414937E0,-2.2125788E0,1.0557709E0,4.7668234E-1,7.090191E-1,-1.413427E0,1.6185908E-1,-5.04731E-2,-7.17889E-1,6.9638586E-1,1.6433701E-1,6.779282E-1,-7.350644E-2,1.3808039E-1,1.1604E0,1.868575E-1,2.8166667E-1,5.089369E-2,4.1564113E-1,-5.9309475E-2,1.961639E-1,4.5583606E-1,1.1320999E0,5.355434E-1,-7.029841E-2,4.280916E-1,1.21338986E-1,8.920311E-1,1.2174266E-1,6.469571E-1,1.2393149E0,4.4703826E-1,6.4299405E-1,9.498695E-1,2.4913566E-1,7.882415E-1,-1.0572141E-1,-2.2463447E-3,2.8089952E-1,7.309686E-1,1.4043915E-1,-7.900411E-3,1.4589234E-1,9.91768E-1,-1.9550549E-2,4.3531644E-1,9.575799E-1,2.6814452E-1,-8.90131E-2,-1.0349227E-1,5.36312E-2,-7.9427786E-2,-3.527946E-2,3.434739E-1,9.177211E-1,-2.397217E-3,-5.3361483E-2,5.9179973E-2,7.788646E-2,9.6702933E-1,1.3564256E-1,8.3740973E-1,-6.298802E-2,1.0255201E0,4.8522228E-1,1.3577123E-1,1.0299189E0,2.6389338E-2,1.2839754E0,8.04954E-1,1.54228555E-2,7.657968E-1],"split_indices":[71,94,97,93,0,123,93,162,162,22,138,162,159,94,116,7,194,178,168,93,199,108,16,168,20,97,93,78,197,8,38,56,56,1,108,155,0,185,164,124,32,163,2,185,93,197,178,171,6,118,119,103,12,188,155,0,62,116,134,28,23,45,85,0,0,0,0,0,0,0,0,0,0,0,0,0,0,0,0,0,0,0,0,0,0,0,0,0,0,0,0,0,0,0,0,0,0,0,0,0,0,0,0,0,0,0,0,0,0,0,0,0,0,0,0,0,0,0,0,0,0,0,0,0,0],"split_type":[0,0,0,0,0,0,0,0,0,0,0,0,0,0,0,0,0,0,0,0,0,0,0,0,0,0,0,0,0,0,0,0,0,0,0,0,0,0,0,0,0,0,0,0,0,0,0,0,0,0,0,0,0,0,0,0,0,0,0,0,0,0,0,0,0,0,0,0,0,0,0,0,0,0,0,0,0,0,0,0,0,0,0,0,0,0,0,0,0,0,0,0,0,0,0,0,0,0,0,0,0,0,0,0,0,0,0,0,0,0,0,0,0,0,0,0,0,0,0,0,0,0,0,0,0],"sum_hessian":[2E4,2.735E3,1.7265E4,1.472E3,1.263E3,1.5053E4,2.212E3,9.68E2,5.04E2,2.51E2,1.012E3,5.22E2,1.4531E4,1.902E3,3.1E2,6.26E2,3.42E2,7.4E1,4.3E2,2.18E2,3.3E1,8.81E2,1.31E2,4.66E2,5.6E1,1.4184E4,3.47E2,1.495E3,4.07E2,2.2E2,9E1,1.02E2,5.24E2,9E0,3.33E2,7E1,4E0,3.71E2,5.9E1,1.56E2,6.2E1,2.2E1,1.1E1,7.46E2,1.35E2,2.7E1,1.04E2,4.21E2,4.5E1,2.3E1,3.3E1,9.468E3,4.716E3,3.17E2,3E1,1.125E3,3.7E2,3.8E2,2.7E1,2.04E2,1.6E1,7.4E1,1.6E1,9.1E1,1.1E1,4.78E2,4.6E1,8E0,1E0,2.09E2,1.24E2,5E0,6.5E1,1.38E2,2.33E2,2.5E1,3.4E1,1.51E2,5E0,5.3E1,9E0,1.3E1,9E0,7E0,4E0,2.4E2,5.06E2,1.01E2,3.4E1,2.5E1,2E0,7.1E1,3.3E1,5.6E1,3.65E2,3.9E1,6E0,2E1,3E0,2.3E1,1E1,2.406E3,7.062E3,9.4E1,4.622E3,2.95E2,2.2E1,1.5E1,1.5E1,9.48E2,1.77E2,3.65E2,5E0,3.6E2,2E1,4E0,2.3E1,6.4E1,1.4E2,1.4E1,2E0,3.7E1,3.7E1,1E1,6E0],"tree_param":{"num_deleted":"0","num_feature":"200","num_nodes":"125","size_leaf_vector":"1"}},{"base_weights":[4.9047186E-3,3.6718502E1,-5.812795E0,1.7148176E1,5.9495693E1,-8.220568E0,1.0568776E1,5.5174975E0,3.332021E1,1.0889267E1,7.152859E1,8.552838E0,-8.8236685E0,4.426277E0,4.8120567E1,-3.1007714E0,2.1233358E1,2.2740116E0,3.897686E1,3.3314886E0,5.924998E1,6.1108265E1,9.4424706E1,3.7955754E0,4.737896E1,-9.124068E0,3.4464293E0,-3.8294837E-1,2.2049255E1,2.9667786E1,9.240566E1,1.7121428E1,-6.8453994E0,5.1807926E1,1.2864273E1,-1.8460443E0,6.438252E1,3.3719463E1,7.735469E1,-5.115964E0,2.4330196E1,1.1942771E2,4.2089478E1,3.4758213E1,7.852947E1,1.0198334E2,3.3012405E1,1.1999223E0,2.752536E1,5.5064793E0,7.55425E1,-9.882461E0,-7.5997233E0,-7.906636E-1,4.6799625E1,-3.5261893E0,9.157948E0,1.729574E1,8.594355E1,2.4479303E1,9.048962E1,1.04808556E2,3.2251404E1,4.911382E-1,8.063793E-2,7.422189E-2,-7.8721516E-2,8.0858755E-1,3.0367404E-1,3.2674164E-1,9.436067E-2,6.061749E-1,-4.664318E-2,7.003426E-1,1.8061908E-1,1.3425289E-1,4.100486E-1,2.940971E-1,9.3391865E-1,7.846478E-1,-6.154717E-2,1.2014806E-1,8.8400275E-1,1.2886788E0,3.1393358E-1,1.674822E-1,6.293535E-1,5.365458E-1,1.2223281E-1,6.728728E-1,1.0607424E0,6.47274E-1,1.1039672E0,8.9436844E-2,1.0422482E0,1.7217739E-1,-3.8417368E-3,1.4446989E-1,9.832671E-1,-1.9364357E-2,4.320516E-1,9.789704E-1,3.1900787E-1,-8.812335E-2,-1.0245749E-1,5.3100538E-2,-7.863368E-2,-2.7896542E-2,4.6323317E-1,9.0911746E-1,-2.3747378E-3,-5.282843E-2,5.8591504E-2,7.7109724E-2,9.589707E-1,1.3428988E-1,8.2943434E-1,-6.248412E-2,1.0156922E0,4.804447E-1,1.3442314E-1,1.0203063E0,2.6213404E-2,4.2458686E-1,1.1266749E0,1.5282645E-2,7.5923276E-1],"categories":[],"categories_nodes":[],"categories_segments":[],"categories_sizes":[],"default_left":[0,0,0,0,0,0,0,0,0,0,0,0,0,0,0,0,0,0,0,0,0,0,0,0,0,0,0,0,0,0,0,0,0,0,0,0,0,0,0,0,0,0,0,0,0,0,0,0,0,0,0,0,0,0,0,0,0,0,0,0,0,0,0,0,0,0,0,0,0,0,0,0,0,0,0,0,0,0,0,0,0,0,0,0,0,0,0,0,0,0,0,0,0,0,0,0,0,0,0,0,0,0,0,0,0,0,0,0,0,0,0,0,0,0,0,0,0,0,0,0,0,0,0,0,0,0,0],"id":4,"left_children":[1,3,5,7,9,11,13,15,17,19,21,23,25,27,29,31,33,35,37,39,41,43,45,47,49,51,53,55,57,59,61,63,65,67,69,71,73,75,77,79,81,83,85,87,89,91,93,95,97,99,101,103,105,107,109,111,113,115,117,119,121,123,125,-1,-1,-1,-1,-1,-1,-1,-1,-1,-1,-1,-1,-1,-1,-1,-1,-1,-1,-1,-1,-1,-1,-1,-1,-1,-1,-1,-1,-1,-1,-1,-1,-1,-1,-1,-1,-1,-1,-1,-1,-1,-1,-1,-1,-1,-1,-1,-1,-1,-1,-1,-1,-1,-1,-1,-1,-1,-1,-1,-1,-1,-1,-1,-1],"loss_changes":[4.2722005E6,1.2185718E6,6.8111125E5,2.768753E5,7.385035E5,1.5236269E5,5.1024162E5,1.1627636E5,1.0809169E5,9.190851E4,2.35917E5,9.642144E4,5.35955E4,1.6129319E5,2.514025E5,4.2144367E4,7.712141E4,2.4684346E4,1.025125E5,3.8971918E4,3.0084477E4,3.18146E5,1.4285425E5,2.8731508E4,6.680285E4,1.63235E4,6.396165E4,4.4896336E4,1.2243233E5,6.752653E4,6.4513688E4,2.4814414E4,6.9289414E3,3.8030734E4,1.5990656E4,1.630232E4,3.0580078E2,6.746097E4,4.492528E4,1.4113634E4,4.8647914E4,1.7718047E3,1.3737242E4,1.18576125E5,1.2292125E5,8.06195E4,6.0771543E4,1.0714341E4,4.1173918E4,6.817779E3,3.0047062E4,3.5909375E3,1.60965E4,3.0078598E4,6.4343695E4,1.8595078E4,4.5824496E4,9.560047E4,4.0970375E4,5.2672297E4,1.6972047E4,3.1966562E4,2.2693498E4,0E0,0E0,0E0,0E0,0E0,0E0,0E0,0E0,0E0,0E0,0E0,0E0,0E0,0E0,0E0,0E0,0E0,0E0,0E0,0E0,0E0,0E0,0E0,0E0,0E0,0E0,0E0,0E0,0E0,0E0,0E0,0E0,0E0,0E0,0E0,0E0,0E0,0E0,0E0,0E0,0E0,0E0,0E0,0E0,0E0,0E0,0E0,0E0,0E0,0E0,0E0,0E0,0E0,0E0,0E0,0E0,0E0,0E0,0E0,0E0,0E0,0E0,0E0,0E0],"parents":[2147483647,0,0,1,1,2,2,3,3,4,4,5,5,6,6,7,7,8,8,9,9,10,10,11,11,12,12,13,13,14,14,15,15,16,16,17,17,18,18,19,19,20,20,21,21,22,22,23,23,24,24,25,25,26,26,27,27,28,28,29,29,30,30,31,31,32,32,33,33,34,34,35,35,36,36,37,37,38,38,39,39,40,40,41,41,42,42,43,43,44,44,45,45,46,46,47,47,48,48,49,49,50,50,51,51,52,52,53,53,54,54,55,55,56,56,57,57,58,58,59,59,60,60,61,61,62,62],"right_children":[2,4,6,8,10,12,14,16,18,20,22,24,26,28,30,32,34,36,38,40,42,44,46,48,50,52,54,56,58,60,62,64,66,68,70,72,74,76,78,80,82,84,86,88,90,92,94,96,98,100,102,104,106,108,110,112,114,116,118,120,122,124,126,-1,-1,-1,-1,-1,-1,-1,-1,-1,-1,-1,-1,-1,-1,-1,-1,-1,-1,-1,-1,-1,-1,-1,-1,-1,-1,-1,-1,-1,-1,-1,-1,-1,-1,-1,-1,-1,-1,-1,-1,-1,-1,-1,-1,-1,-1,-1,-1,-1,-1,-1,-1,-1,-1,-1,-1,-1,-1,-1,-1,-1,-1,-1,-1],"split_conditions":[-4.4523236E-1,-2.7875613E-2,1.7464261E0,7.2131765E-1,7.2639227E-1,-4.5813808E-1,1.3803439E0,1.7873312E0,5.3340757E-1,5.1654524E-1,-1.4955169E0,2.7657278E0,1.0429155E0,1.7081255E-1,-1.20592736E-1,-6.0306156E-1,-1.5587846E0,7.570675E-1,7.7282585E-2,8.6608386E-1,-8.00415E-1,2.2145553E0,3.3256945E-1,3.392962E-1,-4.9450842E-1,5.9640414E-1,1.5380683E0,2.2779398E0,2.1694353E0,1.4830458E0,5.6719947E-1,-1.4086542E0,-2.4929085E0,1.6633013E0,-1.3896785E0,-1.6938876E0,1.269639E0,-4.805636E-1,-7.939126E-2,-1.3347712E0,5.775778E-1,3.9562798E-1,4.2454636E-1,-2.4690695E-2,-9.95996E-1,-1.8074057E0,1.8164693E0,-4.1300952E-1,5.4369575E-1,3.0394478E0,1.189815E0,-6.610132E-1,-2.3520906E0,1.9263229E0,-2.2125788E0,1.0557709E0,4.7668234E-1,7.090191E-1,-1.413427E0,1.6185908E-1,-5.04731E-2,-6.1382926E-1,6.9638586E-1,4.911382E-1,8.063793E-2,7.422189E-2,-7.8721516E-2,8.0858755E-1,3.0367404E-1,3.2674164E-1,9.436067E-2,6.061749E-1,-4.664318E-2,7.003426E-1,1.8061908E-1,1.3425289E-1,4.100486E-1,2.940971E-1,9.3391865E-1,7.846478E-1,-6.154717E-2,1.2014806E-1,8.8400275E-1,1.2886788E0,3.1393358E-1,1.674822E-1,6.293535E-1,5.365458E-1,1.2223281E-1,6.728728E-1,1.0607424E0,6.47274E-1,1.1039672E0,8.9436844E-2,1.0422482E0,1.7217739E-1,-3.8417368E-3,1.4446989E-1,9.832671E-1,-1.9364357E-2,4.320516E-1,9.789704E-1,3.1900787E-1,-8.812335E-2,-1.0245749E-1,5.3100538E-2,-7.863368E-2,-2.7896542E-2,4.6323317E-1,9.0911746E-1,-2.3747378E-3,-5.282843E-2,5.8591504E-2,7.7109724E-2,9.589707E-1,1.3428988E-1,8.2943434E-1,-6.248412E-2,1.0156922E0,4.804447E-1,1.3442314E-1,1.0203063E0,2.6213404E-2,4.2458686E-1,1.1266749E0,1.5282645E-2,7.5923276E-1],"split_indices":[71,94,97,93,0,123,93,162,162,22,199,162,159,94,116,75,108,178,168,93,151,162,50,168,20,97,93,78,197,8,38,59,7,27,71,161,0,156,10,158,32,1,163,50,100,19,97,192,6,118,164,103,12,188,155,0,62,116,134,28,23,168,85,0,0,0,0,0,0,0,0,0,0,0,0,0,0,0,0,0,0,0,0,0,0,0,0,0,0,0,0,0,0,0,0,0,0,0,0,0,0,0,0,0,0,0,0,0,0,0,0,0,0,0,0,0,0,0,0,0,0,0,0,0,0,0,0],"split_type":[0,0,0,0,0,0,0,0,0,0,0,0,0,0,0,0,0,0,0,0,0,0,0,0,0,0,0,0,0,0,0,0,0,0,0,0,0,0,0,0,0,0,0,0,0,0,0,0,0,0,0,0,0,0,0,0,0,0,0,0,0,0,0,0,0,0,0,0,0,0,0,0,0,0,0,0,0,0,0,0,0,0,0,0,0,0,0,0,0,0,0,0,0,0,0,0,0,0,0,0,0,0,0,0,0,0,0,0,0,0,0,0,0,0,0,0,0,0,0,0,0,0,0,0,0,0,0],"sum_hessian":[2E4,2.735E3,1.7265E4,1.472E3,1.263E3,1.5053E4,2.212E3,8.57E2,6.15E2,2.51E2,1.012E3,5.22E2,1.4531E4,1.902E3,3.1E2,5.54E2,3.03E2,9.5E1,5.2E2,2.18E2,3.3E1,6.98E2,3.14E2,4.66E2,5.6E1,1.4184E4,3.47E2,1.495E3,4.07E2,2.2E2,9E1,8.6E1,4.68E2,6.4E1,2.39E2,9E1,5E0,4.59E2,6.1E1,1.56E2,6.2E1,6E0,2.7E1,2.79E2,4.19E2,2.79E2,3.5E1,4.21E2,4.5E1,2.3E1,3.3E1,9.468E3,4.716E3,3.17E2,3E1,1.125E3,3.7E2,3.8E2,2.7E1,2.04E2,1.6E1,7.4E1,1.6E1,1.8E1,6.8E1,3.1E1,4.37E2,2.6E1,3.8E1,3.4E1,2.05E2,3E0,8.7E1,4E0,1E0,1.22E2,3.37E2,1.6E1,4.5E1,1E0,1.55E2,5.3E1,9E0,5E0,1E0,1.3E1,1.4E1,1.51E2,1.28E2,3E2,1.19E2,5.3E1,2.26E2,2.7E1,8E0,3.7E1,3.84E2,3.9E1,6E0,2E1,3E0,2.1E1,1.2E1,2.406E3,7.062E3,9.4E1,4.622E3,3.05E2,1.2E1,1.5E1,1.5E1,9.48E2,1.77E2,3.65E2,5E0,3.6E2,2E1,4E0,2.3E1,6.4E1,1.4E2,1.4E1,2E0,9E0,6.5E1,1E1,6E0],"tree_param":{"num_deleted":"0","num_feature":"200","num_nodes":"127","size_leaf_vector":"1"}},{"base_weights":[6.1450023E-3,3.6356693E1,-5.754026E0,1.69803E1,5.8908173E1,-8.138087E0,1.0466228E1,7.164036E0,3.578224E1,1.0796751E1,7.081851E1,8.473059E0,-8.735355E0,4.3835697E0,4.765218E1,-8.58874E-1,2.1808935E1,3.1351294E1,7.931385E1,3.306061E0,5.8728054E1,7.666163E1,3.123935E1,3.7603946E0,4.693518E1,-9.032844E0,3.415822E0,-3.78422E-1,2.1833462E1,2.9378626E1,9.1507164E1,2.217657E1,-5.376573E0,1.065971E2,1.920507E1,3.745314E-1,3.700419E1,8.9326065E1,-2.3218975E0,-5.0601983E0,2.4102833E1,3.483593E1,9.962729E1,8.358981E1,3.8043842E1,-1.0027571E1,4.1946346E1,1.1883215E0,2.7274622E1,7.482613E1,5.4673634E0,-9.783656E0,-7.5237327E0,-7.8138757E-1,4.636088E1,-3.4909217E0,9.06916E0,1.7125313E1,8.511816E1,2.4237509E1,8.9646286E1,1.0378115E2,3.197445E1,1.6103983E-1,6.6885024E-1,9.126487E-1,-5.7351727E-2,1.1434333E0,1.8440485E-1,2.7627292E-1,4.902098E-2,-4.711819E-2,6.947399E-1,2.1606132E-1,4.7442657E-1,1.2654433E-2,9.624492E-1,-8.2635514E-2,6.3742734E-2,-6.898863E-2,4.236267E-1,1.1896884E-1,8.760467E-1,1.18397176E-1,6.354703E-1,2.8516749E-2,1.0816582E0,6.3000923E-1,9.3211776E-1,2.4184562E-1,7.734678E-1,-1.07637726E-1,-3.046255E-3,2.725896E-1,7.181533E-1,1.3881922E-1,-7.917974E-3,9.278951E-2,7.7489114E-1,8.615163E-1,-8.092073E-2,-2.901901E-2,6.501951E-1,-6.889639E-2,-9.91588E-2,5.257512E-2,-7.7847525E-2,-3.464983E-2,3.3789295E-1,9.0059453E-1,-2.3524777E-3,-5.2300695E-2,5.8008876E-2,4.6995467E-1,5.836123E-2,1.3295071E-1,8.21535E-1,-6.198424E-2,1.0059584E0,4.7571418E-1,1.3308845E-1,1.0107834E0,2.6038654E-2,1.2612424E0,7.8706986E-1,1.5143709E-2,7.5272506E-1],"categories":[],"categories_nodes":[],"categories_segments":[],"categories_sizes":[],"default_left":[0,0,0,0,0,0,0,0,0,0,0,0,0,0,0,0,0,0,0,0,0,0,0,0,0,0,0,0,0,0,0,0,0,0,0,0,0,0,0,0,0,0,0,0,0,0,0,0,0,0,0,0,0,0,0,0,0,0,0,0,0,0,0,0,0,0,0,0,0,0,0,0,0,0,0,0,0,0,0,0,0,0,0,0,0,0,0,0,0,0,0,0,0,0,0,0,0,0,0,0,0,0,0,0,0,0,0,0,0,0,0,0,0,0,0,0,0,0,0,0,0,0,0,0,0,0,0],"id":5,"left_children":[1,3,5,7,9,11,13,15,17,19,21,23,25,27,29,31,33,35,37,39,41,43,45,47,49,51,53,55,57,59,61,63,65,67,69,71,73,75,77,79,81,83,85,87,89,91,93,95,97,99,101,103,105,107,109,111,113,115,117,119,121,123,125,-1,-1,-1,-1,-1,-1,-1,-1,-1,-1,-1,-1,-1,-1,-1,-1,-1,-1,-1,-1,-1,-1,-1,-1,-1,-1,-1,-1,-1,-1,-1,-1,-1,-1,-1,-1,-1,-1,-1,-1,-1,-1,-1,-1,-1,-1,-1,-1,-1,-1,-1,-1,-1,-1,-1,-1,-1,-1,-1,-1,-1,-1,-1,-1],"loss_changes":[4.188126E6,1.1945395E6,6.677629E5,2.716077E5,7.23537E5,1.4942925E5,5.003483E5,1.138711E5,9.492094E4,9.028355E4,2.318775E5,9.4621984E4,5.2561625E4,1.581404E5,2.4654275E5,6.5369375E4,7.367925E4,8.053603E4,3.780572E4,3.822604E4,2.9753164E4,2.327995E5,5.874411E4,2.8211895E4,6.5515797E4,1.5998875E4,6.2763016E4,4.4022438E4,1.2010744E5,6.63025E4,6.317575E4,2.6886965E4,1.8717613E4,4.7202734E3,4.0099156E4,2.563276E4,6.1499688E4,2.4858625E4,3.6269193E2,1.398183E4,4.7789098E4,1.4433293E4,9.607414E3,1.421125E5,7.2210016E4,1.9714673E2,4.410561E4,1.0617894E4,4.0848582E4,3.2626188E4,1.2150466E4,3.5550625E3,1.5777594E4,2.9619127E4,6.31429E4,1.8226305E4,4.5216703E4,9.380484E4,4.019792E4,5.164361E4,1.6653078E4,3.2090688E4,2.230667E4,0E0,0E0,0E0,0E0,0E0,0E0,0E0,0E0,0E0,0E0,0E0,0E0,0E0,0E0,0E0,0E0,0E0,0E0,0E0,0E0,0E0,0E0,0E0,0E0,0E0,0E0,0E0,0E0,0E0,0E0,0E0,0E0,0E0,0E0,0E0,0E0,0E0,0E0,0E0,0E0,0E0,0E0,0E0,0E0,0E0,0E0,0E0,0E0,0E0,0E0,0E0,0E0,0E0,0E0,0E0,0E0,0E0,0E0,0E0,0E0,0E0,0E0,0E0,0E0],"parents":[2147483647,0,0,1,1,2,2,3,3,4,4,5,5,6,6,7,7,8,8,9,9,10,10,11,11,12,12,13,13,14,14,15,15,16,16,17,17,18,18,19,19,20,20,21,21,22,22,23,23,24,24,25,25,26,26,27,27,28,28,29,29,30,30,31,31,32,32,33,33,34,34,35,35,36,36,37,37,38,38,39,39,40,40,41,41,42,42,43,43,44,44,45,45,46,46,47,47,48,48,49,49,50,50,51,51,52,52,53,53,54,54,55,55,56,56,57,57,58,58,59,59,60,60,61,61,62,62],"right_children":[2,4,6,8,10,12,14,16,18,20,22,24,26,28,30,32,34,36,38,40,42,44,46,48,50,52,54,56,58,60,62,64,66,68,70,72,74,76,78,80,82,84,86,88,90,92,94,96,98,100,102,104,106,108,110,112,114,116,118,120,122,124,126,-1,-1,-1,-1,-1,-1,-1,-1,-1,-1,-1,-1,-1,-1,-1,-1,-1,-1,-1,-1,-1,-1,-1,-1,-1,-1,-1,-1,-1,-1,-1,-1,-1,-1,-1,-1,-1,-1,-1,-1,-1,-1,-1,-1,-1,-1,-1,-1,-1,-1,-1,-1,-1,-1,-1,-1,-1,-1,-1,-1,-1,-1,-1,-1],"split_conditions":[-4.4523236E-1,-2.7875613E-2,1.7464261E0,9.8296875E-1,7.2639227E-1,-4.5813808E-1,1.3803439E0,1.7873312E0,-2.8173107E-1,5.1654524E-1,1.7170963E0,2.7657278E0,1.0429155E0,1.7081255E-1,-1.20592736E-1,-2.4929085E0,-2.2950342E0,5.3340757E-1,3.6127713E-1,8.6608386E-1,-1.3276122E0,-7.178675E-1,9.915982E-1,3.392962E-1,-3.1349742E-1,5.9640414E-1,1.5380683E0,2.2779398E0,2.1694353E0,1.4830458E0,5.6719947E-1,2.6328478E0,-1.9639672E0,8.4923327E-1,-4.8945868E-1,7.570675E-1,-1.5462539E0,-1.2968669E0,1.2191058E0,2.0215366E0,5.775778E-1,5.379522E-1,1.0120085E0,-9.6608406E-1,1.7697812E0,1.325409E0,2.6912692E-1,-1.5369893E0,1.0233314E0,5.553812E-1,-9.579751E-1,-6.257473E-1,-2.3520906E0,1.7414937E0,-2.2125788E0,1.0557709E0,-1.784349E0,7.090191E-1,-1.413427E0,1.6185908E-1,-5.04731E-2,-7.17889E-1,6.9638586E-1,1.6103983E-1,6.6885024E-1,9.126487E-1,-5.7351727E-2,1.1434333E0,1.8440485E-1,2.7627292E-1,4.902098E-2,-4.711819E-2,6.947399E-1,2.1606132E-1,4.7442657E-1,1.2654433E-2,9.624492E-1,-8.2635514E-2,6.3742734E-2,-6.898863E-2,4.236267E-1,1.1896884E-1,8.760467E-1,1.18397176E-1,6.354703E-1,2.8516749E-2,1.0816582E0,6.3000923E-1,9.3211776E-1,2.4184562E-1,7.734678E-1,-1.07637726E-1,-3.046255E-3,2.725896E-1,7.181533E-1,1.3881922E-1,-7.917974E-3,9.278951E-2,7.7489114E-1,8.615163E-1,-8.092073E-2,-2.901901E-2,6.501951E-1,-6.889639E-2,-9.91588E-2,5.257512E-2,-7.7847525E-2,-3.464983E-2,3.3789295E-1,9.0059453E-1,-2.3524777E-3,-5.2300695E-2,5.8008876E-2,4.6995467E-1,5.836123E-2,1.3295071E-1,8.21535E-1,-6.198424E-2,1.0059584E0,4.7571418E-1,1.3308845E-1,1.0107834E0,2.6038654E-2,1.2612424E0,7.8706986E-1,1.5143709E-2,7.5272506E-1],"split_indices":[71,94,97,93,0,123,93,162,185,22,138,162,159,94,116,7,194,162,180,93,199,108,16,168,108,97,93,78,197,8,38,56,69,1,108,178,185,116,2,124,32,163,16,185,93,197,178,171,10,71,40,61,12,188,155,0,108,116,134,28,23,45,85,0,0,0,0,0,0,0,0,0,0,0,0,0,0,0,0,0,0,0,0,0,0,0,0,0,0,0,0,0,0,0,0,0,0,0,0,0,0,0,0,0,0,0,0,0,0,0,0,0,0,0,0,0,0,0,0,0,0,0,0,0,0,0,0],"split_type":[0,0,0,0,0,0,0,0,0,0,0,0,0,0,0,0,0,0,0,0,0,0,0,0,0,0,0,0,0,0,0,0,0,0,0,0,0,0,0,0,0,0,0,0,0,0,0,0,0,0,0,0,0,0,0,0,0,0,0,0,0,0,0,0,0,0,0,0,0,0,0,0,0,0,0,0,0,0,0,0,0,0,0,0,0,0,0,0,0,0,0,0,0,0,0,0,0,0,0,0,0,0,0,0,0,0,0,0,0,0,0,0,0,0,0,0,0,0,0,0,0,0,0,0,0,0,0],"sum_hessian":[2E4,2.735E3,1.7265E4,1.472E3,1.263E3,1.5053E4,2.212E3,9.68E2,5.04E2,2.51E2,1.012E3,5.22E2,1.4531E4,1.902E3,3.1E2,6.26E2,3.42E2,4.59E2,4.5E1,2.18E2,3.3E1,8.81E2,1.31E2,4.66E2,5.6E1,1.4184E4,3.47E2,1.495E3,4.07E2,2.2E2,9E1,1.02E2,5.24E2,9E0,3.33E2,7.1E1,3.88E2,4E1,5E0,1.56E2,6.2E1,2.2E1,1.1E1,7.46E2,1.35E2,2.7E1,1.04E2,4.21E2,4.5E1,3.3E1,2.3E1,9.468E3,4.716E3,3.17E2,3E1,1.125E3,3.7E2,3.8E2,2.7E1,2.04E2,1.6E1,7.4E1,1.6E1,9.1E1,1.1E1,1E0,5.23E2,8E0,1E0,2.09E2,1.24E2,6.7E1,4E0,1.58E2,2.3E2,3E0,3.7E1,3E0,2E0,1.51E2,5E0,5.3E1,9E0,1.3E1,9E0,1E0,1E1,2.4E2,5.06E2,1.01E2,3.4E1,2.5E1,2E0,7.1E1,3.3E1,5.6E1,3.65E2,3.4E1,1.1E1,2.9E1,4E0,2.1E1,2E0,4.16E2,9.052E3,9.4E1,4.622E3,2.95E2,2.2E1,1.5E1,1.5E1,9.48E2,1.77E2,2.8E1,3.42E2,3.6E2,2E1,4E0,2.3E1,6.4E1,1.4E2,1.4E1,2E0,3.7E1,3.7E1,1E1,6E0],"tree_param":{"num_deleted":"0","num_feature":"200","num_nodes":"127","size_leaf_vector":"1"}},{"base_weights":[7.2141336E-3,3.5997623E1,-5.6958885E0,1.6814322E1,5.832437E1,-8.056479E0,1.036468E1,5.406361E0,3.2676685E1,1.0701536E1,7.011374E1,8.392918E0,-8.647932E0,4.341012E0,4.7190006E1,-3.0429633E0,2.0814154E1,2.2317758E0,3.8223778E1,3.2791634E0,5.81956E1,5.984176E1,9.2685165E1,3.7249293E0,4.649042E1,-8.942529E0,3.3851159E0,-3.7428117E-1,2.1619781E1,2.9092285E1,9.062304E1,1.6896374E1,-6.7352433E0,5.0942963E1,1.2567542E1,-1.8199437E0,6.331089E1,3.30394E1,7.6072014E1,-5.007337E0,2.38776E1,1.1753524E2,4.1282272E1,3.385132E1,7.702624E1,1.0014204E2,3.211266E1,1.176749E0,2.7020739E1,5.3611274E0,7.41555E1,-9.685837E0,-7.4485E0,-7.7262044E-1,4.5926247E1,-3.456008E0,8.979894E0,1.6956566E1,8.430069E1,2.3998104E1,8.8810814E1,1.02770645E2,3.1699875E1,4.8561192E-1,7.932201E-2,7.17841E-2,-7.7363886E-2,7.9589254E-1,2.9804683E-1,9.822087E-2,3.6867386E-1,5.976681E-1,-4.5986604E-2,7.444519E-1,2.7361533E-1,1.3018507E-1,4.0227354E-1,1.0442564E0,4.7990763E-1,7.786064E-1,-6.0376484E-2,1.17801175E-1,8.681624E-1,1.2689258E0,3.0695564E-1,1.6420375E-1,6.173456E-1,5.249281E-1,1.16237335E-1,6.5942216E-1,1.0418679E0,6.333885E-1,1.0845582E0,8.273544E-2,1.0271071E0,1.7023048E-1,-3.9035778E-3,1.4096293E-1,9.70146E-1,-1.9278193E-2,4.2287815E-1,9.338385E-1,2.546133E-1,-8.628864E-2,-1.0044671E-1,5.20549E-2,-7.706921E-2,-2.7394867E-2,4.558382E-1,8.921514E-1,-2.330417E-3,-5.1778242E-2,5.7432037E-2,7.547758E-2,9.4843495E-1,1.3162489E-1,8.1371087E-1,-6.1488375E-2,9.963181E-1,4.7103027E-1,1.31767E-1,1.0013494E0,2.5865057E-2,1.2489618E0,7.7940625E-1,1.5006045E-2,7.4627316E-1],"categories":[],"categories_nodes":[],"categories_segments":[],"categories_sizes":[],"default_left":[0,0,0,0,0,0,0,0,0,0,0,0,0,0,0,0,0,0,0,0,0,0,0,0,0,0,0,0,0,0,0,0,0,0,0,0,0,0,0,0,0,0,0,0,0,0,0,0,0,0,0,0,0,0,0,0,0,0,0,0,0,0,0,0,0,0,0,0,0,0,0,0,0,0,0,0,0,0,0,0,0,0,0,0,0,0,0,0,0,0,0,0,0,0,0,0,0,0,0,0,0,0,0,0,0,0,0,0,0,0,0,0,0,0,0,0,0,0,0,0,0,0,0,0,0,0,0],"id":6,"left_children":[1,3,5,7,9,11,13,15,17,19,21,23,25,27,29,31,33,35,37,39,41,43,45,47,49,51,53,55,57,59,61,63,65,67,69,71,73,75,77,79,81,83,85,87,89,91,93,95,97,99,101,103,105,107,109,111,113,115,117,119,121,123,125,-1,-1,-1,-1,-1,-1,-1,-1,-1,-1,-1,-1,-1,-1,-1,-1,-1,-1,-1,-1,-1,-1,-1,-1,-1,-1,-1,-1,-1,-1,-1,-1,-1,-1,-1,-1,-1,-1,-1,-1,-1,-1,-1,-1,-1,-1,-1,-1,-1,-1,-1,-1,-1,-1,-1,-1,-1,-1,-1,-1,-1,-1,-1,-1],"loss_changes":[4.1055505E6,1.1708498E6,6.546796E5,2.6637328E5,7.08914E5,1.4653331E5,4.9069062E5,1.1176244E5,1.0394519E5,8.864386E4,2.293205E5,9.283648E4,5.154475E4,1.55054E5,2.4182169E5,4.0973805E4,7.489178E4,2.3872867E4,9.971706E4,3.750044E4,2.9271328E4,3.095885E5,1.3906375E5,2.7690219E4,6.445961E4,1.5680625E4,6.1587914E4,4.3156242E4,1.17826734E5,6.5100656E4,6.187775E4,2.4309656E4,6.5885137E3,3.6987516E4,1.5649277E4,1.5847875E4,3.6468945E2,6.567459E4,4.435328E4,1.387473E4,4.6945426E4,1.7930859E3,1.3223805E4,1.1540934E5,1.1957E5,7.88035E4,5.9738043E4,1.0486105E4,4.0245523E4,6.541283E3,2.9456797E4,3.5046875E3,1.5464984E4,2.9119139E4,6.196451E4,1.7864852E4,4.490538E4,9.204292E4,3.9440016E4,5.063503E4,1.6340078E4,3.1468812E4,2.1926432E4,0E0,0E0,0E0,0E0,0E0,0E0,0E0,0E0,0E0,0E0,0E0,0E0,0E0,0E0,0E0,0E0,0E0,0E0,0E0,0E0,0E0,0E0,0E0,0E0,0E0,0E0,0E0,0E0,0E0,0E0,0E0,0E0,0E0,0E0,0E0,0E0,0E0,0E0,0E0,0E0,0E0,0E0,0E0,0E0,0E0,0E0,0E0,0E0,0E0,0E0,0E0,0E0,0E0,0E0,0E0,0E0,0E0,0E0,0E0,0E0,0E0,0E0,0E0,0E0],"parents":[2147483647,0,0,1,1,2,2,3,3,4,4,5,5,6,6,7,7,8,8,9,9,10,10,11,11,12,12,13,13,14,14,15,15,16,16,17,17,18,18,19,19,20,20,21,21,22,22,23,23,24,24,25,25,26,26,27,27,28,28,29,29,30,30,31,31,32,32,33,33,34,34,35,35,36,36,37,37,38,38,39,39,40,40,41,41,42,42,43,43,44,44,45,45,46,46,47,47,48,48,49,49,50,50,51,51,52,52,53,53,54,54,55,55,56,56,57,57,58,58,59,59,60,60,61,61,62,62],"right_children":[2,4,6,8,10,12,14,16,18,20,22,24,26,28,30,32,34,36,38,40,42,44,46,48,50,52,54,56,58,60,62,64,66,68,70,72,74,76,78,80,82,84,86,88,90,92,94,96,98,100,102,104,106,108,110,112,114,116,118,120,122,124,126,-1,-1,-1,-1,-1,-1,-1,-1,-1,-1,-1,-1,-1,-1,-1,-1,-1,-1,-1,-1,-1,-1,-1,-1,-1,-1,-1,-1,-1,-1,-1,-1,-1,-1,-1,-1,-1,-1,-1,-1,-1,-1,-1,-1,-1,-1,-1,-1,-1,-1,-1,-1,-1,-1,-1,-1,-1,-1,-1,-1,-1,-1,-1,-1],"split_conditions":[-4.4523236E-1,-2.7875613E-2,1.7464261E0,7.2131765E-1,7.2639227E-1,-4.5813808E-1,1.3803439E0,1.7873312E0,5.3340757E-1,5.1654524E-1,-1.4955169E0,2.7657278E0,1.0429155E0,1.7081255E-1,-1.20592736E-1,-6.0306156E-1,-1.5587846E0,7.570675E-1,7.7282585E-2,8.6608386E-1,-8.00415E-1,2.2145553E0,3.3256945E-1,3.392962E-1,-4.9450842E-1,5.9640414E-1,1.5380683E0,2.2779398E0,2.1694353E0,1.4830458E0,5.6719947E-1,-1.4086542E0,-2.4929085E0,1.6633013E0,1.4243531E0,-1.6938876E0,1.4197053E0,-4.805636E-1,-1.6630878E0,-1.3347712E0,5.775778E-1,3.9562798E-1,4.2454636E-1,-2.4690695E-2,-9.95996E-1,-1.8074057E0,1.8164693E0,-4.1300952E-1,5.4369575E-1,3.0394478E0,-5.9218302E-2,-6.610132E-1,-2.3520906E0,1.9263229E0,-2.2125788E0,1.0557709E0,4.7668234E-1,7.090191E-1,-1.413427E0,1.6185908E-1,-5.04731E-2,-7.17889E-1,6.9638586E-1,4.8561192E-1,7.932201E-2,7.17841E-2,-7.7363886E-2,7.9589254E-1,2.9804683E-1,9.822087E-2,3.6867386E-1,5.976681E-1,-4.5986604E-2,7.444519E-1,2.7361533E-1,1.3018507E-1,4.0227354E-1,1.0442564E0,4.7990763E-1,7.786064E-1,-6.0376484E-2,1.17801175E-1,8.681624E-1,1.2689258E0,3.0695564E-1,1.6420375E-1,6.173456E-1,5.249281E-1,1.16237335E-1,6.5942216E-1,1.0418679E0,6.333885E-1,1.0845582E0,8.273544E-2,1.0271071E0,1.7023048E-1,-3.9035778E-3,1.4096293E-1,9.70146E-1,-1.9278193E-2,4.2287815E-1,9.338385E-1,2.546133E-1,-8.628864E-2,-1.0044671E-1,5.20549E-2,-7.706921E-2,-2.7394867E-2,4.558382E-1,8.921514E-1,-2.330417E-3,-5.1778242E-2,5.7432037E-2,7.547758E-2,9.4843495E-1,1.3162489E-1,8.1371087E-1,-6.1488375E-2,9.963181E-1,4.7103027E-1,1.31767E-1,1.0013494E0,2.5865057E-2,1.2489618E0,7.7940625E-1,1.5006045E-2,7.4627316E-1],"split_indices":[71,94,97,93,0,123,93,162,162,22,199,162,159,94,116,75,108,178,168,93,151,162,50,168,20,97,93,78,197,8,38,59,7,27,115,161,2,156,108,158,32,1,163,50,100,19,97,192,6,118,119,103,12,188,155,0,62,116,134,28,23,45,85,0,0,0,0,0,0,0,0,0,0,0,0,0,0,0,0,0,0,0,0,0,0,0,0,0,0,0,0,0,0,0,0,0,0,0,0,0,0,0,0,0,0,0,0,0,0,0,0,0,0,0,0,0,0,0,0,0,0,0,0,0,0,0,0],"split_type":[0,0,0,0,0,0,0,0,0,0,0,0,0,0,0,0,0,0,0,0,0,0,0,0,0,0,0,0,0,0,0,0,0,0,0,0,0,0,0,0,0,0,0,0,0,0,0,0,0,0,0,0,0,0,0,0,0,0,0,0,0,0,0,0,0,0,0,0,0,0,0,0,0,0,0,0,0,0,0,0,0,0,0,0,0,0,0,0,0,0,0,0,0,0,0,0,0,0,0,0,0,0,0,0,0,0,0,0,0,0,0,0,0,0,0,0,0,0,0,0,0,0,0,0,0,0,0],"sum_hessian":[2E4,2.735E3,1.7265E4,1.472E3,1.263E3,1.5053E4,2.212E3,8.57E2,6.15E2,2.51E2,1.012E3,5.22E2,1.4531E4,1.902E3,3.1E2,5.54E2,3.03E2,9.5E1,5.2E2,2.18E2,3.3E1,6.98E2,3.14E2,4.66E2,5.6E1,1.4184E4,3.47E2,1.495E3,4.07E2,2.2E2,9E1,8.6E1,4.68E2,6.4E1,2.39E2,9E1,5E0,4.59E2,6.1E1,1.56E2,6.2E1,6E0,2.7E1,2.79E2,4.19E2,2.79E2,3.5E1,4.21E2,4.5E1,2.3E1,3.3E1,9.468E3,4.716E3,3.17E2,3E1,1.125E3,3.7E2,3.8E2,2.7E1,2.04E2,1.6E1,7.4E1,1.6E1,1.8E1,6.8E1,3.1E1,4.37E2,2.6E1,3.8E1,2.16E2,2.3E1,3E0,8.7E1,3E0,2E0,1.22E2,3.37E2,2.9E1,3.2E1,1E0,1.55E2,5.3E1,9E0,5E0,1E0,1.3E1,1.4E1,1.51E2,1.28E2,3E2,1.19E2,5.3E1,2.26E2,2.7E1,8E0,3.7E1,3.84E2,3.9E1,6E0,2E1,3E0,2.3E1,1E1,2.406E3,7.062E3,9.4E1,4.622E3,3.05E2,1.2E1,1.5E1,1.5E1,9.48E2,1.77E2,3.65E2,5E0,3.6E2,2E1,4E0,2.3E1,6.4E1,1.4E2,1.4E1,2E0,3.7E1,3.7E1,1E1,6E0],"tree_param":{"num_deleted":"0","num_feature":"200","num_nodes":"127","size_leaf_vector":"1"}},{"base_weights":[8.456015E-3,3.5643124E1,-5.6382747E0,1.665008E1,5.774843E1,-7.9756513E0,1.0264345E1,7.019096E0,3.5097157E1,1.0610638E1,6.94177E1,7.8967123E0,-8.576949E0,4.299131E0,4.6732315E1,-8.4436536E-1,2.1372948E1,3.0727491E1,7.803083E1,3.254153E0,5.7682976E1,7.517304E1,3.043568E1,3.508838E0,4.5057495E1,-8.865709E0,3.300487E0,-3.6985025E-1,2.1408192E1,2.8808739E1,8.974747E1,2.17826E1,-5.2819524E0,1.0506716E2,1.8803143E1,3.7881464E-1,3.6265736E1,8.791702E1,-2.5299363E0,-4.9526896E0,2.3654472E1,3.414656E1,9.7987526E1,8.199718E1,3.713774E1,-1.0204271E1,4.098314E1,1.1387064E0,2.5975645E1,4.6428857E0,7.34489E1,-9.588798E0,-7.4076443E0,-8.625342E-1,4.549569E1,-3.421443E0,8.892855E0,1.6789482E1,8.3491066E1,2.3761063E1,8.798312E1,1.0176999E2,3.1427658E1,1.5780634E-1,6.5982467E-1,9.0607405E-1,-5.637862E-2,1.1269702E0,1.819926E-1,2.7093157E-1,4.725488E-2,-4.6295494E-2,6.841681E-1,2.1081413E-1,4.6560287E-1,1.0222692E-2,9.475023E-1,-8.3231926E-2,6.0377173E-2,7.7471334E-1,-5.97766E-2,1.1664498E-1,8.603489E-1,1.1512568E-1,6.24195E-1,2.7553149E-2,1.0639452E0,6.172871E-1,9.146996E-1,2.34737E-1,7.5897586E-1,-1.0945359E-1,-3.8008657E-3,2.6447904E-1,7.0558244E-1,-2.081138E-2,9.358161E-2,8.4549196E-2,7.6373184E-1,-4.3273285E-2,3.3769786E-1,9.5557857E-1,3.0383816E-1,-6.730786E-2,-9.719471E-2,-8.738352E-2,-5.196645E-2,7.466148E-1,-2.073973E-2,8.837875E-1,-2.308566E-3,-5.1261008E-2,5.6860946E-2,4.6378535E-1,5.697584E-2,1.303123E-1,8.059613E-1,-6.0996465E-2,9.8677E-1,4.663924E-1,1.3045868E-1,9.9200356E-1,2.5692621E-2,4.0289238E-1,1.0954328E0,1.4869624E-2,7.3987657E-1],"categories":[],"categories_nodes":[],"categories_segments":[],"categories_sizes":[],"default_left":[0,0,0,0,0,0,0,0,0,0,0,0,0,0,0,0,0,0,0,0,0,0,0,0,0,0,0,0,0,0,0,0,0,0,0,0,0,0,0,0,0,0,0,0,0,0,0,0,0,0,0,0,0,0,0,0,0,0,0,0,0,0,0,0,0,0,0,0,0,0,0,0,0,0,0,0,0,0,0,0,0,0,0,0,0,0,0,0,0,0,0,0,0,0,0,0,0,0,0,0,0,0,0,0,0,0,0,0,0,0,0,0,0,0,0,0,0,0,0,0,0,0,0,0,0,0,0],"id":7,"left_children":[1,3,5,7,9,11,13,15,17,19,21,23,25,27,29,31,33,35,37,39,41,43,45,47,49,51,53,55,57,59,61,63,65,67,69,71,73,75,77,79,81,83,85,87,89,91,93,95,97,99,101,103,105,107,109,111,113,115,117,119,121,123,125,-1,-1,-1,-1,-1,-1,-1,-1,-1,-1,-1,-1,-1,-1,-1,-1,-1,-1,-1,-1,-1,-1,-1,-1,-1,-1,-1,-1,-1,-1,-1,-1,-1,-1,-1,-1,-1,-1,-1,-1,-1,-1,-1,-1,-1,-1,-1,-1,-1,-1,-1,-1,-1,-1,-1,-1,-1,-1,-1,-1,-1,-1,-1,-1],"loss_changes":[4.0247895E6,1.1477395E6,6.418661E5,2.61452E5,6.94544E5,1.4374325E5,4.812135E5,1.0939E5,9.234325E4,8.70766E4,2.249835E5,8.952317E4,4.9777625E4,1.5202316E5,2.3719094E5,6.3071582E4,7.179611E4,7.730234E4,3.6858594E4,3.678262E4,2.8907297E4,2.25885E5,5.6999766E4,2.622232E4,6.620977E4,1.4859E4,6.0641773E4,4.2316367E4,1.155893E5,6.3920594E4,6.0606375E4,2.6283219E4,1.8428016E4,4.5768984E3,3.885111E4,2.485139E4,5.9825312E4,2.424775E4,3.4806073E2,1.3726801E4,4.611664E4,1.3999771E4,9.314242E3,1.377765E5,7.02462E4,1.9969604E2,4.3271406E4,1.1849495E4,4.0855336E4,6.6779966E3,2.9468812E4,3.468625E3,1.3779969E4,2.8975059E4,6.0808125E4,1.7510562E4,4.4172977E4,9.03141E4,3.869642E4,4.964611E4,1.6032953E4,3.142975E4,2.1552676E4,0E0,0E0,0E0,0E0,0E0,0E0,0E0,0E0,0E0,0E0,0E0,0E0,0E0,0E0,0E0,0E0,0E0,0E0,0E0,0E0,0E0,0E0,0E0,0E0,0E0,0E0,0E0,0E0,0E0,0E0,0E0,0E0,0E0,0E0,0E0,0E0,0E0,0E0,0E0,0E0,0E0,0E0,0E0,0E0,0E0,0E0,0E0,0E0,0E0,0E0,0E0,0E0,0E0,0E0,0E0,0E0,0E0,0E0,0E0,0E0,0E0,0E0,0E0,0E0],"parents":[2147483647,0,0,1,1,2,2,3,3,4,4,5,5,6,6,7,7,8,8,9,9,10,10,11,11,12,12,13,13,14,14,15,15,16,16,17,17,18,18,19,19,20,20,21,21,22,22,23,23,24,24,25,25,26,26,27,27,28,28,29,29,30,30,31,31,32,32,33,33,34,34,35,35,36,36,37,37,38,38,39,39,40,40,41,41,42,42,43,43,44,44,45,45,46,46,47,47,48,48,49,49,50,50,51,51,52,52,53,53,54,54,55,55,56,56,57,57,58,58,59,59,60,60,61,61,62,62],"right_children":[2,4,6,8,10,12,14,16,18,20,22,24,26,28,30,32,34,36,38,40,42,44,46,48,50,52,54,56,58,60,62,64,66,68,70,72,74,76,78,80,82,84,86,88,90,92,94,96,98,100,102,104,106,108,110,112,114,116,118,120,122,124,126,-1,-1,-1,-1,-1,-1,-1,-1,-1,-1,-1,-1,-1,-1,-1,-1,-1,-1,-1,-1,-1,-1,-1,-1,-1,-1,-1,-1,-1,-1,-1,-1,-1,-1,-1,-1,-1,-1,-1,-1,-1,-1,-1,-1,-1,-1,-1,-1,-1,-1,-1,-1,-1,-1,-1,-1,-1,-1,-1,-1,-1,-1,-1,-1],"split_conditions":[-4.4523236E-1,-2.7875613E-2,1.7464261E0,9.8296875E-1,7.2639227E-1,-4.3417838E-1,1.3803439E0,1.7873312E0,-2.8173107E-1,5.1654524E-1,1.7170963E0,2.7657278E0,1.0429155E0,1.7081255E-1,-1.20592736E-1,-2.4929085E0,-2.2950342E0,5.3340757E-1,3.6127713E-1,8.6608386E-1,-1.3276122E0,-7.178675E-1,9.915982E-1,3.392962E-1,-4.9450842E-1,5.9640414E-1,1.5380683E0,2.2779398E0,2.1694353E0,1.4830458E0,5.6719947E-1,2.6328478E0,-1.9639672E0,8.4923327E-1,-4.8945868E-1,7.570675E-1,-1.5462539E0,-1.2968669E0,1.2191058E0,-1.3347712E0,5.775778E-1,5.379522E-1,1.0120085E0,-9.6608406E-1,1.7697812E0,1.325409E0,2.6912692E-1,-5.716389E-1,1.0233314E0,1.8188591E-1,1.189815E0,-6.257473E-1,7.714898E-1,-5.3035134E-1,-2.2125788E0,1.0557709E0,-1.784349E0,7.090191E-1,-1.413427E0,1.6185908E-1,-5.04731E-2,-6.1382926E-1,6.9638586E-1,1.5780634E-1,6.5982467E-1,9.0607405E-1,-5.637862E-2,1.1269702E0,1.819926E-1,2.7093157E-1,4.725488E-2,-4.6295494E-2,6.841681E-1,2.1081413E-1,4.6560287E-1,1.0222692E-2,9.475023E-1,-8.3231926E-2,6.0377173E-2,7.7471334E-1,-5.97766E-2,1.1664498E-1,8.603489E-1,1.1512568E-1,6.24195E-1,2.7553149E-2,1.0639452E0,6.172871E-1,9.146996E-1,2.34737E-1,7.5897586E-1,-1.0945359E-1,-3.8008657E-3,2.6447904E-1,7.0558244E-1,-2.081138E-2,9.358161E-2,8.4549196E-2,7.6373184E-1,-4.3273285E-2,3.3769786E-1,9.5557857E-1,3.0383816E-1,-6.730786E-2,-9.719471E-2,-8.738352E-2,-5.196645E-2,7.466148E-1,-2.073973E-2,8.837875E-1,-2.308566E-3,-5.1261008E-2,5.6860946E-2,4.6378535E-1,5.697584E-2,1.303123E-1,8.059613E-1,-6.0996465E-2,9.8677E-1,4.663924E-1,1.3045868E-1,9.9200356E-1,2.5692621E-2,4.0289238E-1,1.0954328E0,1.4869624E-2,7.3987657E-1],"split_indices":[71,94,97,93,0,123,93,162,185,22,138,162,159,94,116,7,194,162,180,93,199,108,16,168,20,97,93,78,197,8,38,56,69,1,108,178,185,116,2,158,32,163,16,185,93,197,178,49,10,90,164,61,162,138,155,0,108,116,134,28,23,168,85,0,0,0,0,0,0,0,0,0,0,0,0,0,0,0,0,0,0,0,0,0,0,0,0,0,0,0,0,0,0,0,0,0,0,0,0,0,0,0,0,0,0,0,0,0,0,0,0,0,0,0,0,0,0,0,0,0,0,0,0,0,0,0,0],"split_type":[0,0,0,0,0,0,0,0,0,0,0,0,0,0,0,0,0,0,0,0,0,0,0,0,0,0,0,0,0,0,0,0,0,0,0,0,0,0,0,0,0,0,0,0,0,0,0,0,0,0,0,0,0,0,0,0,0,0,0,0,0,0,0,0,0,0,0,0,0,0,0,0,0,0,0,0,0,0,0,0,0,0,0,0,0,0,0,0,0,0,0,0,0,0,0,0,0,0,0,0,0,0,0,0,0,0,0,0,0,0,0,0,0,0,0,0,0,0,0,0,0,0,0,0,0,0,0],"sum_hessian":[2E4,2.735E3,1.7265E4,1.472E3,1.263E3,1.5053E4,2.212E3,9.68E2,5.04E2,2.51E2,1.012E3,5.49E2,1.4504E4,1.902E3,3.1E2,6.26E2,3.42E2,4.59E2,4.5E1,2.18E2,3.3E1,8.81E2,1.31E2,4.92E2,5.7E1,1.416E4,3.44E2,1.495E3,4.07E2,2.2E2,9E1,1.02E2,5.24E2,9E0,3.33E2,7.1E1,3.88E2,4E1,5E0,1.56E2,6.2E1,2.2E1,1.1E1,7.46E2,1.35E2,2.7E1,1.04E2,4.46E2,4.6E1,2.4E1,3.3E1,9.462E3,4.698E3,3.14E2,3E1,1.125E3,3.7E2,3.8E2,2.7E1,2.04E2,1.6E1,7.4E1,1.6E1,9.1E1,1.1E1,1E0,5.23E2,8E0,1E0,2.09E2,1.24E2,6.7E1,4E0,1.58E2,2.3E2,3E0,3.7E1,3E0,2E0,1E0,1.55E2,5.3E1,9E0,1.3E1,9E0,1E0,1E1,2.4E2,5.06E2,1.01E2,3.4E1,2.5E1,2E0,7.1E1,3.3E1,3.21E2,1.25E2,3.5E1,1.1E1,1.9E1,5E0,2.1E1,1.2E1,4.16E2,9.046E3,2.931E3,1.767E3,4E0,3.1E2,1.5E1,1.5E1,9.48E2,1.77E2,2.8E1,3.42E2,3.6E2,2E1,4E0,2.3E1,6.4E1,1.4E2,1.4E1,2E0,9E0,6.5E1,1E1,6E0],"tree_param":{"num_deleted":"0","num_feature":"200","num_nodes":"127","size_leaf_vector":"1"}},{"base_weights":[9.495476E-3,3.529124E1,-5.581311E0,1.6487343E1,5.7176407E1,-7.8956437E0,1.0164529E1,5.297616E0,3.204627E1,1.051851E1,6.872687E1,7.822245E0,-8.49109E0,4.546708E0,4.815264E1,-2.986135E0,2.0403486E1,2.191767E0,3.748578E1,3.2293367E0,5.7159996E1,5.8601074E1,9.09783E1,3.4756176E0,4.463371E1,-8.777074E0,3.2721412E0,-1.8778157E-1,2.150585E1,2.9305004E1,9.290347E1,1.6674694E1,-6.6268725E0,5.0092777E1,1.2277621E1,-1.7942709E0,6.228138E1,3.2372787E1,7.481627E1,-4.8986096E0,2.3433435E1,1.1567306E2,4.04903E1,3.2965202E1,7.5552124E1,9.833482E1,3.1233692E1,1.127482E0,2.5733936E1,7.27868E1,4.5601606E0,-9.492927E0,-7.333597E0,-8.516045E-1,4.5069168E1,-2.8508346E0,1.0734969E1,1.6839195E1,8.4005486E1,1.913613E1,5.6820885E1,1.0754066E2,4.387092E1,4.8015398E-1,7.802982E-2,6.940305E-2,-7.602952E-2,7.834E-1,2.9252574E-1,3.1760442E-1,8.907833E-2,5.8928305E-1,-4.5339983E-2,7.337372E-1,2.6731128E-1,1.2621383E-1,3.946465E-1,2.7841064E-1,9.055023E-1,7.708398E-1,-5.918267E-2,1.1550012E-1,8.526057E-1,1.2494853E0,3.0010113E-1,1.609948E-1,6.0555714E-1,5.1355374E-1,1.10406205E-1,6.4624E-1,1.023339E0,6.9015616E-1,1.087247E0,7.621956E-2,1.0122201E0,-2.0603916E-2,9.265322E-2,8.372719E-2,7.567309E-1,8.3929664E-1,-8.627734E-2,-3.380691E-2,6.391997E-1,-8.44664E-2,-9.847655E-2,-8.650999E-2,-5.144708E-2,-2.8213087E-2,4.5123163E-1,8.75502E-1,-2.2869247E-3,-3.772327E-2,1.9612347E-1,8.6691864E-2,1.0913622E0,1.3218978E-1,8.0339247E-1,-6.05085E-2,9.865653E-1,5.798104E-1,1.4678279E-1,3.196292E-1,8.89354E-1,8.504081E-1,1.4149705E0,8.629201E-1,4.8640966E-2],"categories":[],"categories_nodes":[],"categories_segments":[],"categories_sizes":[],"default_left":[0,0,0,0,0,0,0,0,0,0,0,0,0,0,0,0,0,0,0,0,0,0,0,0,0,0,0,0,0,0,0,0,0,0,0,0,0,0,0,0,0,0,0,0,0,0,0,0,0,0,0,0,0,0,0,0,0,0,0,0,0,0,0,0,0,0,0,0,0,0,0,0,0,0,0,0,0,0,0,0,0,0,0,0,0,0,0,0,0,0,0,0,0,0,0,0,0,0,0,0,0,0,0,0,0,0,0,0,0,0,0,0,0,0,0,0,0,0,0,0,0,0,0,0,0,0,0],"id":8,"left_children":[1,3,5,7,9,11,13,15,17,19,21,23,25,27,29,31,33,35,37,39,41,43,45,47,49,51,53,55,57,59,61,63,65,67,69,71,73,75,77,79,81,83,85,87,89,91,93,95,97,99,101,103,105,107,109,111,113,115,117,119,121,123,125,-1,-1,-1,-1,-1,-1,-1,-1,-1,-1,-1,-1,-1,-1,-1,-1,-1,-1,-1,-1,-1,-1,-1,-1,-1,-1,-1,-1,-1,-1,-1,-1,-1,-1,-1,-1,-1,-1,-1,-1,-1,-1,-1,-1,-1,-1,-1,-1,-1,-1,-1,-1,-1,-1,-1,-1,-1,-1,-1,-1,-1,-1,-1,-1],"loss_changes":[3.9454625E6,1.1249935E6,6.2927256E5,2.5627975E5,6.8047225E5,1.4095912E5,4.720583E5,1.07425266E5,9.99525E4,8.5489836E4,2.22911E5,8.7848016E4,4.8825062E4,1.5488898E5,2.3766E5,3.9837355E4,7.272532E4,2.310562E4,9.70215E4,3.6078496E4,2.847979E4,3.0126325E5,1.3537525E5,2.5737902E4,6.5103344E4,1.4563125E4,5.950269E4,4.392419E4,1.2137605E5,5.543339E4,5.556875E4,2.3815314E4,6.2635684E3,3.597242E4,1.5473793E4,1.5406244E4,4.0465234E2,6.393603E4,4.3303594E4,1.3580487E4,4.5302473E4,1.8122188E3,1.2728621E4,1.1232809E5,1.1631025E5,7.779075E4,5.8720145E4,1.1615347E4,4.0115625E4,3.1568625E4,1.2000277E4,3.429E3,1.350575E4,2.8652666E4,5.967332E4,2.5203367E4,5.9223434E4,8.928235E4,3.8860125E4,2.4950488E4,4.026564E4,3.6863938E4,3.432922E4,0E0,0E0,0E0,0E0,0E0,0E0,0E0,0E0,0E0,0E0,0E0,0E0,0E0,0E0,0E0,0E0,0E0,0E0,0E0,0E0,0E0,0E0,0E0,0E0,0E0,0E0,0E0,0E0,0E0,0E0,0E0,0E0,0E0,0E0,0E0,0E0,0E0,0E0,0E0,0E0,0E0,0E0,0E0,0E0,0E0,0E0,0E0,0E0,0E0,0E0,0E0,0E0,0E0,0E0,0E0,0E0,0E0,0E0,0E0,0E0,0E0,0E0,0E0,0E0],"parents":[2147483647,0,0,1,1,2,2,3,3,4,4,5,5,6,6,7,7,8,8,9,9,10,10,11,11,12,12,13,13,14,14,15,15,16,16,17,17,18,18,19,19,20,20,21,21,22,22,23,23,24,24,25,25,26,26,27,27,28,28,29,29,30,30,31,31,32,32,33,33,34,34,35,35,36,36,37,37,38,38,39,39,40,40,41,41,42,42,43,43,44,44,45,45,46,46,47,47,48,48,49,49,50,50,51,51,52,52,53,53,54,54,55,55,56,56,57,57,58,58,59,59,60,60,61,61,62,62],"right_children":[2,4,6,8,10,12,14,16,18,20,22,24,26,28,30,32,34,36,38,40,42,44,46,48,50,52,54,56,58,60,62,64,66,68,70,72,74,76,78,80,82,84,86,88,90,92,94,96,98,100,102,104,106,108,110,112,114,116,118,120,122,124,126,-1,-1,-1,-1,-1,-1,-1,-1,-1,-1,-1,-1,-1,-1,-1,-1,-1,-1,-1,-1,-1,-1,-1,-1,-1,-1,-1,-1,-1,-1,-1,-1,-1,-1,-1,-1,-1,-1,-1,-1,-1,-1,-1,-1,-1,-1,-1,-1,-1,-1,-1,-1,-1,-1,-1,-1,-1,-1,-1,-1,-1,-1,-1,-1],"split_conditions":[-4.4523236E-1,-2.7875613E-2,1.7464261E0,7.2131765E-1,7.2639227E-1,-4.3417838E-1,1.4449236E0,1.7873312E0,5.3340757E-1,5.1654524E-1,-1.4955169E0,2.7657278E0,1.0429155E0,1.7081255E-1,-1.20592736E-1,-6.0306156E-1,-1.5587846E0,7.570675E-1,7.7282585E-2,8.6608386E-1,-8.00415E-1,2.2145553E0,3.3256945E-1,3.392962E-1,-3.1349742E-1,5.9640414E-1,1.5380683E0,1.0346073E0,2.1694353E0,2.816162E0,-1.8894844E-1,-1.4086542E0,-2.4929085E0,1.6633013E0,-1.3896785E0,-1.6938876E0,1.4197053E0,-4.805636E-1,-7.939126E-2,-1.3347712E0,5.775778E-1,3.9562798E-1,4.2454636E-1,-2.4690695E-2,-9.95996E-1,5.858658E-1,1.8164693E0,-5.716389E-1,1.0233314E0,5.553812E-1,-9.579751E-1,-6.610132E-1,7.714898E-1,1.9263229E0,-2.2125788E0,1.7689246E0,1.2085805E0,8.103552E-1,-1.413427E0,-1.2899703E0,2.4378283E-1,1.14137314E-1,-2.3968897E0,4.8015398E-1,7.802982E-2,6.940305E-2,-7.602952E-2,7.834E-1,2.9252574E-1,3.1760442E-1,8.907833E-2,5.8928305E-1,-4.5339983E-2,7.337372E-1,2.6731128E-1,1.2621383E-1,3.946465E-1,2.7841064E-1,9.055023E-1,7.708398E-1,-5.918267E-2,1.1550012E-1,8.526057E-1,1.2494853E0,3.0010113E-1,1.609948E-1,6.0555714E-1,5.1355374E-1,1.10406205E-1,6.4624E-1,1.023339E0,6.9015616E-1,1.087247E0,7.621956E-2,1.0122201E0,-2.0603916E-2,9.265322E-2,8.372719E-2,7.567309E-1,8.3929664E-1,-8.627734E-2,-3.380691E-2,6.391997E-1,-8.44664E-2,-9.847655E-2,-8.650999E-2,-5.144708E-2,-2.8213087E-2,4.5123163E-1,8.75502E-1,-2.2869247E-3,-3.772327E-2,1.9612347E-1,8.6691864E-2,1.0913622E0,1.3218978E-1,8.0339247E-1,-6.05085E-2,9.865653E-1,5.798104E-1,1.4678279E-1,3.196292E-1,8.89354E-1,8.504081E-1,1.4149705E0,8.629201E-1,4.8640966E-2],"split_indices":[71,94,97,93,0,123,93,162,162,22,199,162,159,94,116,75,108,178,168,93,151,162,50,168,108,97,93,0,197,162,133,59,7,27,71,161,2,156,10,158,32,1,163,50,100,188,97,49,10,71,40,103,162,188,155,120,107,150,134,157,69,140,149,0,0,0,0,0,0,0,0,0,0,0,0,0,0,0,0,0,0,0,0,0,0,0,0,0,0,0,0,0,0,0,0,0,0,0,0,0,0,0,0,0,0,0,0,0,0,0,0,0,0,0,0,0,0,0,0,0,0,0,0,0,0,0,0],"split_type":[0,0,0,0,0,0,0,0,0,0,0,0,0,0,0,0,0,0,0,0,0,0,0,0,0,0,0,0,0,0,0,0,0,0,0,0,0,0,0,0,0,0,0,0,0,0,0,0,0,0,0,0,0,0,0,0,0,0,0,0,0,0,0,0,0,0,0,0,0,0,0,0,0,0,0,0,0,0,0,0,0,0,0,0,0,0,0,0,0,0,0,0,0,0,0,0,0,0,0,0,0,0,0,0,0,0,0,0,0,0,0,0,0,0,0,0,0,0,0,0,0,0,0,0,0,0,0],"sum_hessian":[2E4,2.735E3,1.7265E4,1.472E3,1.263E3,1.5053E4,2.212E3,8.57E2,6.15E2,2.51E2,1.012E3,5.49E2,1.4504E4,1.928E3,2.84E2,5.54E2,3.03E2,9.5E1,5.2E2,2.18E2,3.3E1,6.98E2,3.14E2,4.92E2,5.7E1,1.416E4,3.44E2,1.508E3,4.2E2,2.01E2,8.3E1,8.6E1,4.68E2,6.4E1,2.39E2,9E1,5E0,4.59E2,6.1E1,1.56E2,6.2E1,6E0,2.7E1,2.79E2,4.19E2,2.79E2,3.5E1,4.46E2,4.6E1,3.3E1,2.4E1,9.462E3,4.698E3,3.14E2,3E1,1.213E3,2.95E2,3.92E2,2.8E1,1.48E2,5.3E1,6.3E1,2E1,1.8E1,6.8E1,3.1E1,4.37E2,2.6E1,3.8E1,3.4E1,2.05E2,3E0,8.7E1,3E0,2E0,1.22E2,3.37E2,1.6E1,4.5E1,1E0,1.55E2,5.3E1,9E0,5E0,1E0,1.3E1,1.4E1,1.51E2,1.28E2,3E2,1.19E2,7.5E1,2.04E2,2.7E1,8E0,3.21E2,1.25E2,3.5E1,1.1E1,2.9E1,4E0,2.2E1,2E0,2.402E3,7.06E3,2.931E3,1.767E3,3.02E2,1.2E1,1.5E1,1.5E1,1.166E3,4.7E1,2.9E2,5E0,3.72E2,2E1,4E0,2.4E1,1.4E1,1.34E2,3.1E1,2.2E1,4E1,2.3E1,9E0,1.1E1],"tree_param":{"num_deleted":"0","num_feature":"200","num_nodes":"127","size_leaf_vector":"1"}},{"base_weights":[1.070023E-2,3.4943607E1,-5.524829E0,1.6326057E1,5.661189E1,-7.8164716E0,1.0066639E1,6.8768115E0,3.4425053E1,1.0429182E1,6.804469E1,7.748152E0,-8.406112E0,4.5028987E0,4.7689053E1,-8.307237E-1,2.0946047E1,3.0116241E1,7.67648E1,3.2047138E0,5.6656517E1,5.8018345E1,9.0077614E1,3.4427128E0,4.4210793E1,-8.689326E0,3.2431774E0,-1.8501802E-1,2.1295212E1,2.9021538E1,9.201225E1,2.139577E1,-5.1897674E0,1.03537994E2,1.841052E1,3.8297737E-1,3.554215E1,8.653676E1,-2.8043902E0,-4.84509E0,2.3214468E1,3.347063E1,9.6374756E1,3.263778E1,7.480058E1,9.771184E1,3.3545403E1,1.1163687E0,2.549448E1,4.513193E0,7.209989E1,-9.398017E0,-7.260291E0,-8.4174514E-1,4.4646645E1,-2.8221955E0,1.0631598E1,1.6673182E1,8.3197365E1,1.8949644E1,5.6275063E1,1.0650065E2,4.3475616E1,1.546353E-1,6.5093285E-1,8.9957047E-1,-5.5430193E-2,1.1105065E0,1.7962E-1,2.6574272E-1,4.548135E-2,-4.5485947E-2,6.737576E-1,2.0571306E-1,4.5692894E-1,7.857256E-3,9.32859E-1,-8.379647E-2,5.564083E-2,-6.652173E-2,4.1741848E-1,1.1436652E-1,8.4493226E-1,1.1192662E-1,6.131272E-1,1.1812719E0,4.2295897E-1,5.08452E-1,1.09310694E-1,6.3979906E-1,1.013191E0,6.775359E-1,1.0829881E0,1.2044786E0,1.7223045E-1,6.6818394E-2,-3.45819E-2,1.296043E-1,9.5266134E-1,-2.3509964E-2,4.113794E-1,9.396602E-1,2.954953E-1,-6.575378E-2,-9.527081E-2,-8.5645184E-2,-5.0932903E-2,7.3990875E-1,-2.0421352E-2,8.672942E-1,-2.2654824E-3,-3.734636E-2,1.942031E-1,8.5827924E-2,1.0822675E0,1.3087143E-1,7.957411E-1,-6.0024433E-2,9.7709423E-1,2.8817073E-1,2.0480728E-2,3.165328E-1,8.8084716E-1,1.3149633E0,7.7395695E-1,8.551538E-1,4.819509E-2],"categories":[],"categories_nodes":[],"categories_segments":[],"categories_sizes":[],"default_left":[0,0,0,0,0,0,0,0,0,0,0,0,0,0,0,0,0,0,0,0,0,0,0,0,0,0,0,0,0,0,0,0,0,0,0,0,0,0,0,0,0,0,0,0,0,0,0,0,0,0,0,0,0,0,0,0,0,0,0,0,0,0,0,0,0,0,0,0,0,0,0,0,0,0,0,0,0,0,0,0,0,0,0,0,0,0,0,0,0,0,0,0,0,0,0,0,0,0,0,0,0,0,0,0,0,0,0,0,0,0,0,0,0,0,0,0,0,0,0,0,0,0,0,0,0,0,0],"id":9,"left_children":[1,3,5,7,9,11,13,15,17,19,21,23,25,27,29,31,33,35,37,39,41,43,45,47,49,51,53,55,57,59,61,63,65,67,69,71,73,75,77,79,81,83,85,87,89,91,93,95,97,99,101,103,105,107,109,111,113,115,117,119,121,123,125,-1,-1,-1,-1,-1,-1,-1,-1,-1,-1,-1,-1,-1,-1,-1,-1,-1,-1,-1,-1,-1,-1,-1,-1,-1,-1,-1,-1,-1,-1,-1,-1,-1,-1,-1,-1,-1,-1,-1,-1,-1,-1,-1,-1,-1,-1,-1,-1,-1,-1,-1,-1,-1,-1,-1,-1,-1,-1,-1,-1,-1,-1,-1,-1],"loss_changes":[3.8678288E6,1.1028062E6,6.1699425E5,2.5167844E5,6.6668E5,1.3822356E5,4.6301338E5,1.0509489E5,8.981731E4,8.397834E4,2.18555E5,8.619102E4,4.788375E4,1.5185669E5,2.3313981E5,6.085872E4,6.992283E4,7.419816E4,3.6009844E4,3.5387812E4,2.8084969E4,2.952925E5,1.3266975E5,2.5262438E4,6.388814E4,1.4273125E4,5.8387418E4,4.3074734E4,1.1906666E5,5.4381516E4,5.4440125E4,2.5693508E4,1.8144287E4,4.4343438E3,3.7677586E4,2.4093809E4,5.8174562E4,2.365525E4,3.2656342E2,1.3494945E4,4.4502668E4,1.3579844E4,9.119875E3,1.1010672E5,1.14036E5,8.051775E4,5.3245195E4,1.1403537E4,3.986782E4,6.3816953E3,2.885736E4,3.38475E3,1.3237E4,2.8447023E4,5.8559695E4,2.4710615E4,5.825736E4,8.760574E4,3.812622E4,2.4790465E4,3.9505188E4,3.6382625E4,3.3714824E4,0E0,0E0,0E0,0E0,0E0,0E0,0E0,0E0,0E0,0E0,0E0,0E0,0E0,0E0,0E0,0E0,0E0,0E0,0E0,0E0,0E0,0E0,0E0,0E0,0E0,0E0,0E0,0E0,0E0,0E0,0E0,0E0,0E0,0E0,0E0,0E0,0E0,0E0,0E0,0E0,0E0,0E0,0E0,0E0,0E0,0E0,0E0,0E0,0E0,0E0,0E0,0E0,0E0,0E0,0E0,0E0,0E0,0E0,0E0,0E0,0E0,0E0,0E0,0E0],"parents":[2147483647,0,0,1,1,2,2,3,3,4,4,5,5,6,6,7,7,8,8,9,9,10,10,11,11,12,12,13,13,14,14,15,15,16,16,17,17,18,18,19,19,20,20,21,21,22,22,23,23,24,24,25,25,26,26,27,27,28,28,29,29,30,30,31,31,32,32,33,33,34,34,35,35,36,36,37,37,38,38,39,39,40,40,41,41,42,42,43,43,44,44,45,45,46,46,47,47,48,48,49,49,50,50,51,51,52,52,53,53,54,54,55,55,56,56,57,57,58,58,59,59,60,60,61,61,62,62],"right_children":[2,4,6,8,10,12,14,16,18,20,22,24,26,28,30,32,34,36,38,40,42,44,46,48,50,52,54,56,58,60,62,64,66,68,70,72,74,76,78,80,82,84,86,88,90,92,94,96,98,100,102,104,106,108,110,112,114,116,118,120,122,124,126,-1,-1,-1,-1,-1,-1,-1,-1,-1,-1,-1,-1,-1,-1,-1,-1,-1,-1,-1,-1,-1,-1,-1,-1,-1,-1,-1,-1,-1,-1,-1,-1,-1,-1,-1,-1,-1,-1,-1,-1,-1,-1,-1,-1,-1,-1,-1,-1,-1,-1,-1,-1,-1,-1,-1,-1,-1,-1,-1,-1,-1,-1,-1,-1],"split_conditions":[-4.4523236E-1,-2.7875613E-2,1.7464261E0,9.8296875E-1,7.2639227E-1,-4.3417838E-1,1.4449236E0,1.7873312E0,-2.8173107E-1,5.1654524E-1,-1.4955169E0,2.7657278E0,1.0429155E0,1.7081255E-1,-1.20592736E-1,-2.4929085E0,-2.2950342E0,5.3340757E-1,3.6127713E-1,8.6608386E-1,-1.3276122E0,2.2145553E0,2.9806444E-1,3.392962E-1,-4.9450842E-1,5.9640414E-1,1.5380683E0,1.0346073E0,2.1694353E0,2.816162E0,-1.8894844E-1,2.6328478E0,-1.9639672E0,8.4923327E-1,-4.8945868E-1,7.570675E-1,-1.5462539E0,-1.2968669E0,1.2191058E0,2.0215366E0,5.775778E-1,5.379522E-1,1.6856259E0,-2.4690695E-2,-9.95996E-1,5.858658E-1,-8.8480073E-1,-9.896766E-1,5.4369575E-1,3.0394478E0,1.189815E0,-6.257473E-1,7.714898E-1,-5.3035134E-1,-2.2125788E0,1.7689246E0,1.2085805E0,8.103552E-1,-1.413427E0,2.8075388E-1,2.4378283E-1,-6.1622924E-1,-2.3968897E0,1.546353E-1,6.5093285E-1,8.9957047E-1,-5.5430193E-2,1.1105065E0,1.7962E-1,2.6574272E-1,4.548135E-2,-4.5485947E-2,6.737576E-1,2.0571306E-1,4.5692894E-1,7.857256E-3,9.32859E-1,-8.379647E-2,5.564083E-2,-6.652173E-2,4.1741848E-1,1.1436652E-1,8.4493226E-1,1.1192662E-1,6.131272E-1,1.1812719E0,4.2295897E-1,5.08452E-1,1.09310694E-1,6.3979906E-1,1.013191E0,6.775359E-1,1.0829881E0,1.2044786E0,1.7223045E-1,6.6818394E-2,-3.45819E-2,1.296043E-1,9.5266134E-1,-2.3509964E-2,4.113794E-1,9.396602E-1,2.954953E-1,-6.575378E-2,-9.527081E-2,-8.5645184E-2,-5.0932903E-2,7.3990875E-1,-2.0421352E-2,8.672942E-1,-2.2654824E-3,-3.734636E-2,1.942031E-1,8.5827924E-2,1.0822675E0,1.3087143E-1,7.957411E-1,-6.0024433E-2,9.7709423E-1,2.8817073E-1,2.0480728E-2,3.165328E-1,8.8084716E-1,1.3149633E0,7.7395695E-1,8.551538E-1,4.819509E-2],"split_indices":[71,94,97,93,0,123,93,162,185,22,199,162,159,94,116,7,194,162,180,93,199,162,50,168,20,97,93,0,197,162,133,56,69,1,108,178,185,116,2,124,32,163,2,50,100,188,183,52,6,118,164,61,162,138,155,120,107,150,134,91,69,45,149,0,0,0,0,0,0,0,0,0,0,0,0,0,0,0,0,0,0,0,0,0,0,0,0,0,0,0,0,0,0,0,0,0,0,0,0,0,0,0,0,0,0,0,0,0,0,0,0,0,0,0,0,0,0,0,0,0,0,0,0,0,0,0,0],"split_type":[0,0,0,0,0,0,0,0,0,0,0,0,0,0,0,0,0,0,0,0,0,0,0,0,0,0,0,0,0,0,0,0,0,0,0,0,0,0,0,0,0,0,0,0,0,0,0,0,0,0,0,0,0,0,0,0,0,0,0,0,0,0,0,0,0,0,0,0,0,0,0,0,0,0,0,0,0,0,0,0,0,0,0,0,0,0,0,0,0,0,0,0,0,0,0,0,0,0,0,0,0,0,0,0,0,0,0,0,0,0,0,0,0,0,0,0,0,0,0,0,0,0,0,0,0,0,0],"sum_hessian":[2E4,2.735E3,1.7265E4,1.472E3,1.263E3,1.5053E4,2.212E3,9.68E2,5.04E2,2.51E2,1.012E3,5.49E2,1.4504E4,1.928E3,2.84E2,6.26E2,3.42E2,4.59E2,4.5E1,2.18E2,3.3E1,6.98E2,3.14E2,4.92E2,5.7E1,1.416E4,3.44E2,1.508E3,4.2E2,2.01E2,8.3E1,1.02E2,5.24E2,9E0,3.33E2,7.1E1,3.88E2,4E1,5E0,1.56E2,6.2E1,2.2E1,1.1E1,2.79E2,4.19E2,2.76E2,3.8E1,4.46E2,4.6E1,2.4E1,3.3E1,9.462E3,4.698E3,3.14E2,3E1,1.213E3,2.95E2,3.92E2,2.8E1,1.48E2,5.3E1,6.3E1,2E1,9.1E1,1.1E1,1E0,5.23E2,8E0,1E0,2.09E2,1.24E2,6.7E1,4E0,1.58E2,2.3E2,3E0,3.7E1,3E0,2E0,1.51E2,5E0,5.3E1,9E0,1.3E1,9E0,7E0,4E0,1.51E2,1.28E2,3E2,1.19E2,7.4E1,2.02E2,5E0,3.3E1,2.01E2,2.45E2,4E1,6E0,2.1E1,3E0,2.1E1,1.2E1,4.16E2,9.046E3,2.931E3,1.767E3,4E0,3.1E2,1.5E1,1.5E1,1.166E3,4.7E1,2.9E2,5E0,3.72E2,2E1,4E0,2.4E1,9.3E1,5.5E1,3.1E1,2.2E1,3.2E1,3.1E1,9E0,1.1E1],"tree_param":{"num_deleted":"0","num_feature":"200","num_nodes":"127","size_leaf_vector":"1"}},{"base_weights":[1.1903111E-2,3.4599472E1,-5.468903E0,1.61665E1,5.6052925E1,-7.738039E0,9.969437E0,6.811398E0,3.4085167E1,1.0339333E1,6.736958E1,7.6756477E0,-8.321961E0,4.459512E0,4.7227947E1,-8.197853E-1,2.0741255E1,2.9817884E1,7.601699E1,3.1786497E0,5.615846E1,7.300435E1,2.9208715E1,3.4105463E0,4.379667E1,-8.602453E0,3.2153382E0,-1.8229012E-1,2.108664E1,2.8738777E1,9.1127754E1,2.1189632E1,-5.136262E0,1.0263163E2,1.8227346E1,3.8787338E-1,3.518843E1,4.8839165E1,1.08906204E2,-4.794404E0,2.2997551E1,1.138335E2,3.973404E1,7.930191E1,3.3499065E1,-1.0585442E1,3.9542313E1,1.9429697E0,3.8021587E1,7.1455635E1,4.4286146E0,-9.304053E0,-7.1877174E0,-8.3104396E-1,4.422808E1,-2.7938447E0,1.0529229E1,1.6508808E1,8.239701E1,4.606245E1,1.3234262E1,1.05468285E2,4.3083878E1,1.5310577E-1,6.4496595E-1,-6.964463E-2,1.360511E-1,1.1006354E0,1.7872187E-1,2.6309794E-1,4.5030184E-2,-4.503778E-2,6.683676E-1,2.0366888E-1,4.5237944E-1,6.7331886E-1,-3.4975313E-2,-1.9700922E-2,1.2133524E0,7.6489854E-1,-5.8057766E-2,1.1324403E-1,8.3732784E-1,1.229229E0,2.964858E-1,4.837442E-1,-9.6866E-2,5.9872687E-1,8.831821E-1,1.8712826E-1,7.3258114E-1,-1.1339242E-1,-5.2403095E-3,-8.049768E-3,4.9638715E-1,3.5917106E-1,9.82782E-3,1.4324279E-1,1.0624865E0,8.24491E-1,-8.7963395E-2,-3.4373596E-2,6.325821E-1,-8.270626E-2,-9.654432E-2,4.3907203E-2,-7.427583E-2,-2.7803628E-2,4.4667006E-1,9.184146E-1,4.738335E-2,6.359196E-2,-4.997444E-2,8.497259E-2,1.0732487E0,1.293881E-1,7.913265E-1,-5.954424E-2,9.6771413E-1,6.0712E-1,1.06285796E-1,3.5874265E-1,1.8880358E-2,8.3271325E-1,1.3899357E0,8.474574E-1,4.7753304E-2],"categories":[],"categories_nodes":[],"categories_segments":[],"categories_sizes":[],"default_left":[0,0,0,0,0,0,0,0,0,0,0,0,0,0,0,0,0,0,0,0,0,0,0,0,0,0,0,0,0,0,0,0,0,0,0,0,0,0,0,0,0,0,0,0,0,0,0,0,0,0,0,0,0,0,0,0,0,0,0,0,0,0,0,0,0,0,0,0,0,0,0,0,0,0,0,0,0,0,0,0,0,0,0,0,0,0,0,0,0,0,0,0,0,0,0,0,0,0,0,0,0,0,0,0,0,0,0,0,0,0,0,0,0,0,0,0,0,0,0,0,0,0,0,0,0,0,0],"id":10,"left_children":[1,3,5,7,9,11,13,15,17,19,21,23,25,27,29,31,33,35,37,39,41,43,45,47,49,51,53,55,57,59,61,63,65,67,69,71,73,75,77,79,81,83,85,87,89,91,93,95,97,99,101,103,105,107,109,111,113,115,117,119,121,123,125,-1,-1,-1,-1,-1,-1,-1,-1,-1,-1,-1,-1,-1,-1,-1,-1,-1,-1,-1,-1,-1,-1,-1,-1,-1,-1,-1,-1,-1,-1,-1,-1,-1,-1,-1,-1,-1,-1,-1,-1,-1,-1,-1,-1,-1,-1,-1,-1,-1,-1,-1,-1,-1,-1,-1,-1,-1,-1,-1,-1,-1,-1,-1,-1],"loss_changes":[3.7917338E6,1.0810475E6,6.0493444E5,2.4668819E5,6.53203E5,1.3555581E5,4.5409966E5,1.0302295E5,8.809544E4,8.250175E4,2.1569E5,8.458353E4,4.69675E4,1.4888377E5,2.2870731E5,5.967581E4,6.874094E4,7.269181E4,3.579853E4,3.471602E4,2.7684438E4,2.167735E5,5.4699188E4,2.496774E4,6.283857E4,1.39890625E4,5.7290625E4,4.2241754E4,1.1680116E5,5.364661E4,5.3329875E4,2.5236738E4,1.8082824E4,4.332172E3,3.693085E4,2.3704242E4,5.7019906E4,2.6367387E4,2.7800781E4,1.3350843E4,4.3716965E4,1.7118281E3,1.2424957E4,1.278485E5,7.09392E4,2.0641821E2,4.2813016E4,1.5427314E4,3.0814025E4,3.0721672E4,1.1786244E4,3.3466875E3,1.3083031E4,2.8061607E4,5.7852273E4,2.4517719E4,5.7307023E4,8.6837984E4,3.7406203E4,4.8668297E4,2.767516E4,3.6052E4,3.3111434E4,0E0,0E0,0E0,0E0,0E0,0E0,0E0,0E0,0E0,0E0,0E0,0E0,0E0,0E0,0E0,0E0,0E0,0E0,0E0,0E0,0E0,0E0,0E0,0E0,0E0,0E0,0E0,0E0,0E0,0E0,0E0,0E0,0E0,0E0,0E0,0E0,0E0,0E0,0E0,0E0,0E0,0E0,0E0,0E0,0E0,0E0,0E0,0E0,0E0,0E0,0E0,0E0,0E0,0E0,0E0,0E0,0E0,0E0,0E0,0E0,0E0,0E0,0E0,0E0],"parents":[2147483647,0,0,1,1,2,2,3,3,4,4,5,5,6,6,7,7,8,8,9,9,10,10,11,11,12,12,13,13,14,14,15,15,16,16,17,17,18,18,19,19,20,20,21,21,22,22,23,23,24,24,25,25,26,26,27,27,28,28,29,29,30,30,31,31,32,32,33,33,34,34,35,35,36,36,37,37,38,38,39,39,40,40,41,41,42,42,43,43,44,44,45,45,46,46,47,47,48,48,49,49,50,50,51,51,52,52,53,53,54,54,55,55,56,56,57,57,58,58,59,59,60,60,61,61,62,62],"right_children":[2,4,6,8,10,12,14,16,18,20,22,24,26,28,30,32,34,36,38,40,42,44,46,48,50,52,54,56,58,60,62,64,66,68,70,72,74,76,78,80,82,84,86,88,90,92,94,96,98,100,102,104,106,108,110,112,114,116,118,120,122,124,126,-1,-1,-1,-1,-1,-1,-1,-1,-1,-1,-1,-1,-1,-1,-1,-1,-1,-1,-1,-1,-1,-1,-1,-1,-1,-1,-1,-1,-1,-1,-1,-1,-1,-1,-1,-1,-1,-1,-1,-1,-1,-1,-1,-1,-1,-1,-1,-1,-1,-1,-1,-1,-1,-1,-1,-1,-1,-1,-1,-1,-1,-1,-1,-1],"split_conditions":[-4.4523236E-1,-2.7875613E-2,1.7464261E0,9.8296875E-1,7.2639227E-1,-4.3417838E-1,1.4449236E0,1.7873312E0,-2.8173107E-1,5.1654524E-1,1.7170963E0,2.7657278E0,1.0429155E0,1.7081255E-1,-1.20592736E-1,-2.4929085E0,-2.2950342E0,5.3340757E-1,-4.913768E-1,8.6608386E-1,-8.00415E-1,-6.075615E-1,9.915982E-1,2.4235234E0,-3.1349742E-1,5.9640414E-1,1.5380683E0,1.0346073E0,2.1694353E0,-3.1366178E-1,-1.8894844E-1,2.6328478E0,2.1422002E0,8.4923327E-1,-4.8945868E-1,7.570675E-1,-1.5462539E0,5.5140585E-1,-3.739623E-1,-1.3347712E0,5.775778E-1,3.9562798E-1,1.4592899E0,-9.6608406E-1,1.7697812E0,1.325409E0,-7.925952E-1,-1.1511933E0,7.384736E-1,5.553812E-1,-9.579751E-1,-6.610132E-1,-2.3278596E0,1.9263229E0,-1.5465228E-2,-2.2320151E0,1.2085805E0,7.090191E-1,-1.413427E0,-2.8994852E-1,1.3729711E-1,1.14137314E-1,-2.3968897E0,1.5310577E-1,6.4496595E-1,-6.964463E-2,1.360511E-1,1.1006354E0,1.7872187E-1,2.6309794E-1,4.5030184E-2,-4.503778E-2,6.683676E-1,2.0366888E-1,4.5237944E-1,6.7331886E-1,-3.4975313E-2,-1.9700922E-2,1.2133524E0,7.6489854E-1,-5.8057766E-2,1.1324403E-1,8.3732784E-1,1.229229E0,2.964858E-1,4.837442E-1,-9.6866E-2,5.9872687E-1,8.831821E-1,1.8712826E-1,7.3258114E-1,-1.1339242E-1,-5.2403095E-3,-8.049768E-3,4.9638715E-1,3.5917106E-1,9.82782E-3,1.4324279E-1,1.0624865E0,8.24491E-1,-8.7963395E-2,-3.4373596E-2,6.325821E-1,-8.270626E-2,-9.654432E-2,4.3907203E-2,-7.427583E-2,-2.7803628E-2,4.4667006E-1,9.184146E-1,4.738335E-2,6.359196E-2,-4.997444E-2,8.497259E-2,1.0732487E0,1.293881E-1,7.913265E-1,-5.954424E-2,9.6771413E-1,6.0712E-1,1.06285796E-1,3.5874265E-1,1.8880358E-2,8.3271325E-1,1.3899357E0,8.474574E-1,4.7753304E-2],"split_indices":[71,94,97,93,0,123,93,162,185,22,138,162,159,94,116,7,194,162,24,93,151,108,16,197,108,97,93,0,197,87,133,56,56,1,108,178,185,38,132,158,32,1,22,185,93,197,22,192,104,71,40,103,12,188,86,12,107,116,134,157,28,140,149,0,0,0,0,0,0,0,0,0,0,0,0,0,0,0,0,0,0,0,0,0,0,0,0,0,0,0,0,0,0,0,0,0,0,0,0,0,0,0,0,0,0,0,0,0,0,0,0,0,0,0,0,0,0,0,0,0,0,0,0,0,0,0,0],"split_type":[0,0,0,0,0,0,0,0,0,0,0,0,0,0,0,0,0,0,0,0,0,0,0,0,0,0,0,0,0,0,0,0,0,0,0,0,0,0,0,0,0,0,0,0,0,0,0,0,0,0,0,0,0,0,0,0,0,0,0,0,0,0,0,0,0,0,0,0,0,0,0,0,0,0,0,0,0,0,0,0,0,0,0,0,0,0,0,0,0,0,0,0,0,0,0,0,0,0,0,0,0,0,0,0,0,0,0,0,0,0,0,0,0,0,0,0,0,0,0,0,0,0,0,0,0,0,0],"sum_hessian":[2E4,2.735E3,1.7265E4,1.472E3,1.263E3,1.5053E4,2.212E3,9.68E2,5.04E2,2.51E2,1.012E3,5.49E2,1.4504E4,1.928E3,2.84E2,6.26E2,3.42E2,4.59E2,4.5E1,2.18E2,3.3E1,8.81E2,1.31E2,4.92E2,5.7E1,1.416E4,3.44E2,1.508E3,4.2E2,2.01E2,8.3E1,1.02E2,5.24E2,9E0,3.33E2,7.1E1,3.88E2,2.6E1,1.9E1,1.56E2,6.2E1,6E0,2.7E1,7.59E2,1.22E2,2.7E1,1.04E2,4.73E2,1.9E1,3.3E1,2.4E1,9.462E3,4.698E3,3.14E2,3E1,1.213E3,2.95E2,3.92E2,2.8E1,9.4E1,1.07E2,6.3E1,2E1,9.1E1,1.1E1,4.78E2,4.6E1,8E0,1E0,2.09E2,1.24E2,6.7E1,4E0,1.58E2,2.3E2,1.9E1,7E0,2E0,1.7E1,1E0,1.55E2,5.3E1,9E0,5E0,1E0,2.3E1,4E0,2.43E2,5.16E2,9E1,3.2E1,2.5E1,2E0,2.1E1,8.3E1,1.2E1,4.61E2,1.5E1,4E0,2.9E1,4E0,2.2E1,2E0,2.402E3,7.06E3,9.5E1,4.603E3,3.02E2,1.2E1,1.3E1,1.7E1,2.35E2,9.78E2,2.9E2,5E0,3.72E2,2E1,4E0,2.4E1,6.6E1,2.8E1,3.5E1,7.2E1,4E1,2.3E1,9E0,1.1E1],"tree_param":{"num_deleted":"0","num_feature":"200","num_nodes":"127","size_leaf_vector":"1"}},{"base_weights":[1.2943923E-2,3.4257828E1,-5.41356E0,1.6008612E1,5.5497414E1,-7.6603875E0,9.873E0,5.1341662E0,3.1129171E1,1.22689295E1,6.722721E1,7.604181E0,-8.238661E0,4.1335526E0,4.496077E1,-2.9078956E0,1.9799332E1,2.1202695E0,3.641463E1,3.672587E0,6.182099E1,7.625487E1,4.3818523E1,3.3796349E0,4.3381714E1,-8.516443E0,3.187198E0,-3.532433E-1,2.0575006E1,2.7706562E1,8.636977E1,1.6380331E1,-6.479682E0,4.890915E1,1.1832925E1,-1.7663974E0,6.0714672E1,3.1395887E1,7.3063156E1,-4.3087964E0,2.2589605E1,3.3179264E1,1.0270988E2,9.455055E1,6.1482224E1,6.3324165E1,2.3999893E1,1.083293E0,2.5147406E1,4.3911195E0,7.077534E1,-9.012207E0,-6.546574E0,-8.214043E-1,4.3816956E1,-3.3380024E0,8.7065735E0,1.6131248E1,8.030703E1,2.2778736E1,8.550054E1,9.797987E1,3.0068148E1,4.7345072E-1,7.616412E-2,6.544068E-2,-7.416395E-2,7.664021E-1,2.845664E-1,9.139115E-2,3.5696414E-1,5.764845E-1,-4.4469994E-2,7.1816826E-1,2.5673577E-1,1.1980246E-1,3.8368455E-1,1.0074228E0,4.5686275E-1,7.6107407E-1,-5.269064E-2,1.168219E-1,7.903941E-1,1.03080116E-1,6.135104E-1,2.1138684E-1,1.1285299E0,7.1551305E-1,1.0687915E0,6.713075E-1,1.3156472E-1,7.3924404E-1,2.671354E-1,4.2321E-2,4.427933E-1,-2.058413E-2,9.103499E-2,1.2763286E-1,9.409048E-1,-2.3299119E-2,4.025901E-1,8.967965E-1,2.3095427E-1,6.622418E-1,-9.024714E-2,-7.743401E-2,-3.284603E-2,7.332629E-1,-2.0108482E-2,8.532751E-1,-4.321639E-3,-4.9590167E-2,5.3231247E-2,7.2902456E-2,9.3651426E-1,1.2465502E-1,7.8379005E-1,-5.906788E-2,9.492212E-1,4.5104218E-1,1.2325296E-1,1.1263168E0,4.089905E-1,3.8015285E-1,1.0558087E0,9.132028E-3,7.1587604E-1],"categories":[],"categories_nodes":[],"categories_segments":[],"categories_sizes":[],"default_left":[0,0,0,0,0,0,0,0,0,0,0,0,0,0,0,0,0,0,0,0,0,0,0,0,0,0,0,0,0,0,0,0,0,0,0,0,0,0,0,0,0,0,0,0,0,0,0,0,0,0,0,0,0,0,0,0,0,0,0,0,0,0,0,0,0,0,0,0,0,0,0,0,0,0,0,0,0,0,0,0,0,0,0,0,0,0,0,0,0,0,0,0,0,0,0,0,0,0,0,0,0,0,0,0,0,0,0,0,0,0,0,0,0,0,0,0,0,0,0,0,0,0,0,0,0,0,0],"id":11,"left_children":[1,3,5,7,9,11,13,15,17,19,21,23,25,27,29,31,33,35,37,39,41,43,45,47,49,51,53,55,57,59,61,63,65,67,69,71,73,75,77,79,81,83,85,87,89,91,93,95,97,99,101,103,105,107,109,111,113,115,117,119,121,123,125,-1,-1,-1,-1,-1,-1,-1,-1,-1,-1,-1,-1,-1,-1,-1,-1,-1,-1,-1,-1,-1,-1,-1,-1,-1,-1,-1,-1,-1,-1,-1,-1,-1,-1,-1,-1,-1,-1,-1,-1,-1,-1,-1,-1,-1,-1,-1,-1,-1,-1,-1,-1,-1,-1,-1,-1,-1,-1,-1,-1,-1,-1,-1,-1],"loss_changes":[3.716971E6,1.059601E6,5.9309825E5,2.420421E5,6.401005E5,1.3294562E5,4.454778E5,1.0124852E5,9.437131E4,1.15209875E5,2.067165E5,8.29825E4,4.6064688E4,1.4039053E5,2.1981012E5,3.8341992E4,6.9919055E4,2.1969992E4,9.353344E4,3.5125613E4,4.343728E4,1.8770425E5,1.0633469E5,2.4615977E4,6.163865E4,1.37705E4,5.6225637E4,4.0482953E4,1.07001875E5,6.0992906E4,5.6537625E4,2.3248809E4,5.7701055E3,3.468511E4,1.5101855E4,1.4749712E4,4.9039258E2,6.181372E4,4.2379125E4,1.306527E4,4.1561426E4,1.5475691E4,1.0852609E4,8.2521E4,1.080315E5,5.2356688E4,5.5935773E4,1.1281855E4,3.892766E4,6.120531E3,2.8574922E4,1.1241625E4,1.1104914E4,2.7928725E4,5.6977844E4,1.5835226E4,4.3952156E4,8.596124E4,3.584133E4,4.728658E4,1.5964992E4,3.0170625E4,2.0513082E4,0E0,0E0,0E0,0E0,0E0,0E0,0E0,0E0,0E0,0E0,0E0,0E0,0E0,0E0,0E0,0E0,0E0,0E0,0E0,0E0,0E0,0E0,0E0,0E0,0E0,0E0,0E0,0E0,0E0,0E0,0E0,0E0,0E0,0E0,0E0,0E0,0E0,0E0,0E0,0E0,0E0,0E0,0E0,0E0,0E0,0E0,0E0,0E0,0E0,0E0,0E0,0E0,0E0,0E0,0E0,0E0,0E0,0E0,0E0,0E0,0E0,0E0,0E0,0E0],"parents":[2147483647,0,0,1,1,2,2,3,3,4,4,5,5,6,6,7,7,8,8,9,9,10,10,11,11,12,12,13,13,14,14,15,15,16,16,17,17,18,18,19,19,20,20,21,21,22,22,23,23,24,24,25,25,26,26,27,27,28,28,29,29,30,30,31,31,32,32,33,33,34,34,35,35,36,36,37,37,38,38,39,39,40,40,41,41,42,42,43,43,44,44,45,45,46,46,47,47,48,48,49,49,50,50,51,51,52,52,53,53,54,54,55,55,56,56,57,57,58,58,59,59,60,60,61,61,62,62],"right_children":[2,4,6,8,10,12,14,16,18,20,22,24,26,28,30,32,34,36,38,40,42,44,46,48,50,52,54,56,58,60,62,64,66,68,70,72,74,76,78,80,82,84,86,88,90,92,94,96,98,100,102,104,106,108,110,112,114,116,118,120,122,124,126,-1,-1,-1,-1,-1,-1,-1,-1,-1,-1,-1,-1,-1,-1,-1,-1,-1,-1,-1,-1,-1,-1,-1,-1,-1,-1,-1,-1,-1,-1,-1,-1,-1,-1,-1,-1,-1,-1,-1,-1,-1,-1,-1,-1,-1,-1,-1,-1,-1,-1,-1,-1,-1,-1,-1,-1,-1,-1,-1,-1,-1,-1,-1,-1],"split_conditions":[-4.4523236E-1,-2.7875613E-2,1.7464261E0,7.2131765E-1,7.836174E-1,-4.3417838E-1,1.3803439E0,1.7873312E0,5.3340757E-1,5.1654524E-1,-8.488066E-1,2.7657278E0,1.0429155E0,1.7081255E-1,-1.20592736E-1,-6.0306156E-1,-1.5587846E0,7.570675E-1,7.7282585E-2,8.6608386E-1,-1.3276122E0,-1.7631495E0,-1.1338333E0,3.392962E-1,-4.9450842E-1,9.2552966E-1,1.5380683E0,2.2779398E0,2.1694353E0,1.4830458E0,5.6719947E-1,-1.4086542E0,-2.4929085E0,1.6633013E0,1.4243531E0,-1.6938876E0,1.4197053E0,-4.805636E-1,-1.6630878E0,-1.3347712E0,5.775778E-1,5.379522E-1,1.3990719E0,1.0512974E-1,-5.7149327E-1,-1.2231307E0,1.5648074E-1,-5.716389E-1,5.4369575E-1,3.0394478E0,-5.9218302E-2,-2.3820474E0,-5.20925E-2,-5.3035134E-1,-2.2125788E0,1.0557709E0,4.7668234E-1,7.090191E-1,-1.413427E0,1.6185908E-1,4.1510314E-1,-6.1382926E-1,6.9638586E-1,4.7345072E-1,7.616412E-2,6.544068E-2,-7.416395E-2,7.664021E-1,2.845664E-1,9.139115E-2,3.5696414E-1,5.764845E-1,-4.4469994E-2,7.1816826E-1,2.5673577E-1,1.1980246E-1,3.8368455E-1,1.0074228E0,4.5686275E-1,7.6107407E-1,-5.269064E-2,1.168219E-1,7.903941E-1,1.03080116E-1,6.135104E-1,2.1138684E-1,1.1285299E0,7.1551305E-1,1.0687915E0,6.713075E-1,1.3156472E-1,7.3924404E-1,2.671354E-1,4.2321E-2,4.427933E-1,-2.058413E-2,9.103499E-2,1.2763286E-1,9.409048E-1,-2.3299119E-2,4.025901E-1,8.967965E-1,2.3095427E-1,6.622418E-1,-9.024714E-2,-7.743401E-2,-3.284603E-2,7.332629E-1,-2.0108482E-2,8.532751E-1,-4.321639E-3,-4.9590167E-2,5.3231247E-2,7.2902456E-2,9.3651426E-1,1.2465502E-1,7.8379005E-1,-5.906788E-2,9.492212E-1,4.5104218E-1,1.2325296E-1,1.1263168E0,4.089905E-1,3.8015285E-1,1.0558087E0,9.132028E-3,7.1587604E-1],"split_indices":[71,94,97,93,0,123,93,162,162,22,127,162,159,94,116,75,108,178,168,93,199,59,19,168,20,97,93,78,197,8,38,59,7,27,115,161,2,156,108,158,32,163,16,188,108,12,178,49,6,118,119,147,51,138,155,0,62,116,134,28,25,168,85,0,0,0,0,0,0,0,0,0,0,0,0,0,0,0,0,0,0,0,0,0,0,0,0,0,0,0,0,0,0,0,0,0,0,0,0,0,0,0,0,0,0,0,0,0,0,0,0,0,0,0,0,0,0,0,0,0,0,0,0,0,0,0,0],"split_type":[0,0,0,0,0,0,0,0,0,0,0,0,0,0,0,0,0,0,0,0,0,0,0,0,0,0,0,0,0,0,0,0,0,0,0,0,0,0,0,0,0,0,0,0,0,0,0,0,0,0,0,0,0,0,0,0,0,0,0,0,0,0,0,0,0,0,0,0,0,0,0,0,0,0,0,0,0,0,0,0,0,0,0,0,0,0,0,0,0,0,0,0,0,0,0,0,0,0,0,0,0,0,0,0,0,0,0,0,0,0,0,0,0,0,0,0,0,0,0,0,0,0,0,0,0,0,0],"sum_hessian":[2E4,2.735E3,1.7265E4,1.472E3,1.263E3,1.5053E4,2.212E3,8.57E2,6.15E2,2.7E2,9.93E2,5.49E2,1.4504E4,1.902E3,3.1E2,5.54E2,3.03E2,9.5E1,5.2E2,2.31E2,3.9E1,7.15E2,2.78E2,4.92E2,5.7E1,1.416E4,3.44E2,1.495E3,4.07E2,2.2E2,9E1,8.6E1,4.68E2,6.4E1,2.39E2,9E1,5E0,4.59E2,6.1E1,1.63E2,6.8E1,2.4E1,1.5E1,3.17E2,3.98E2,1.39E2,1.39E2,4.46E2,4.6E1,2.4E1,3.3E1,1.131E4,2.85E3,3.14E2,3E1,1.125E3,3.7E2,3.8E2,2.7E1,2.04E2,1.6E1,7.4E1,1.6E1,1.8E1,6.8E1,3.1E1,4.37E2,2.6E1,3.8E1,2.16E2,2.3E1,3E0,8.7E1,3E0,2E0,1.22E2,3.37E2,2.9E1,3.2E1,1E0,1.62E2,5.8E1,1E1,1.4E1,1E1,2E0,1.3E1,1.13E2,2.04E2,3.56E2,4.2E1,1.07E2,3.2E1,7.1E1,6.8E1,3.21E2,1.25E2,4E1,6E0,2.1E1,3E0,2.3E1,1E1,1E0,1.1309E4,2.084E3,7.66E2,4E0,3.1E2,1.5E1,1.5E1,9.48E2,1.77E2,3.65E2,5E0,3.6E2,2E1,4E0,2.3E1,6.4E1,1.4E2,9E0,7E0,9E0,6.5E1,1E1,6E0],"tree_param":{"num_deleted":"0","num_feature":"200","num_nodes":"127","size_leaf_vector":"1"}},{"base_weights":[1.4065126E-2,3.3920097E1,-5.3587437E0,1.5852269E1,5.494857E1,-7.5834737E0,9.777471E0,6.6729484E0,3.343427E1,1.215979E1,6.6559044E1,7.932723E0,-8.141373E0,4.3726926E0,4.6324978E1,-8.06916E-1,2.03266E1,2.9224283E1,7.4807304E1,3.642825E0,6.1254192E1,7.5495926E1,4.3385685E1,3.5220034E0,4.3930504E1,-8.4194E0,3.2148225E0,-1.785145E-1,2.0675303E1,2.8187159E1,8.9390625E1,2.08134E1,-5.047079E0,1.01159164E2,1.7845604E1,3.9192027E-1,3.4485737E1,4.802848E1,1.07218346E2,-4.261389E0,2.2376858E1,3.2876137E1,1.0176652E2,8.89621E1,5.563765E1,6.2698112E1,2.3763361E1,1.0956933E0,2.5704195E1,7.012007E1,4.9981747E0,-8.920003E0,-6.4392033E0,-7.133113E-1,4.340617E1,-2.7453408E0,1.03495455E1,1.6184473E1,8.082084E1,4.5306156E1,1.2867788E1,1.0353687E2,4.202156E1,1.5002586E-1,6.3628525E-1,8.924739E-1,-5.3973496E-2,1.0847895E0,1.7640544E-1,2.580078E-1,4.3381453E-2,-4.4247176E-2,6.581982E-1,3.2244036E-1,1.0222542E0,6.6315365E-1,-3.692309E-2,-2.4206607E-2,1.1953493E0,7.5726867E-1,-5.2166965E-2,1.1567348E-1,7.832087E-1,1.0211803E-1,6.0793304E-1,2.099776E-1,1.1180507E0,1.0685655E0,6.8488395E-1,7.7851826E-1,3.923776E-1,7.3192006E-1,2.64545E-1,4.0433624E-1,1.9175243E-3,1.347836E-1,-8.357482E-3,1.3235125E-1,9.3283993E-1,8.0981976E-1,-9.075369E-2,-3.056995E-2,6.2403363E-1,4.0390518E-1,-8.932285E-2,5.747385E-2,-6.786705E-2,7.273968E-1,-1.8806733E-2,9.0380085E-1,4.4594444E-2,-3.6418524E-2,1.9108295E-1,8.33753E-2,1.0620737E0,1.2655807E-1,7.808962E-1,-5.859534E-2,9.492408E-1,3.280049E-1,8.7811804E-1,3.506822E-1,1.743359E-2,1.2816789E0,7.4900603E-1,8.3032805E-1,4.3437265E-2],"categories":[],"categories_nodes":[],"categories_segments":[],"categories_sizes":[],"default_left":[0,0,0,0,0,0,0,0,0,0,0,0,0,0,0,0,0,0,0,0,0,0,0,0,0,0,0,0,0,0,0,0,0,0,0,0,0,0,0,0,0,0,0,0,0,0,0,0,0,0,0,0,0,0,0,0,0,0,0,0,0,0,0,0,0,0,0,0,0,0,0,0,0,0,0,0,0,0,0,0,0,0,0,0,0,0,0,0,0,0,0,0,0,0,0,0,0,0,0,0,0,0,0,0,0,0,0,0,0,0,0,0,0,0,0,0,0,0,0,0,0,0,0,0,0,0,0],"id":12,"left_children":[1,3,5,7,9,11,13,15,17,19,21,23,25,27,29,31,33,35,37,39,41,43,45,47,49,51,53,55,57,59,61,63,65,67,69,71,73,75,77,79,81,83,85,87,89,91,93,95,97,99,101,103,105,107,109,111,113,115,117,119,121,123,125,-1,-1,-1,-1,-1,-1,-1,-1,-1,-1,-1,-1,-1,-1,-1,-1,-1,-1,-1,-1,-1,-1,-1,-1,-1,-1,-1,-1,-1,-1,-1,-1,-1,-1,-1,-1,-1,-1,-1,-1,-1,-1,-1,-1,-1,-1,-1,-1,-1,-1,-1,-1,-1,-1,-1,-1,-1,-1,-1,-1,-1,-1,-1,-1],"loss_changes":[3.6437765E6,1.03864175E6,5.8148925E5,2.375056E5,6.2714325E5,1.30379E5,4.3693388E5,9.897791E4,8.577469E4,1.1309154E5,2.025795E5,8.288519E4,4.5909438E4,1.4312884E5,2.2009869E5,5.7584438E4,6.6981766E4,6.976856E4,3.477522E4,3.4449406E4,4.2640766E4,1.865195E5,1.042385E5,2.5106184E4,5.7767938E4,1.4004E4,5.4972156E4,4.0807176E4,1.1240545E5,5.239197E4,5.1937125E4,2.467086E4,1.782171E4,4.199758E3,3.577778E4,2.2981496E4,5.577428E4,2.578179E4,2.7296938E4,1.2926839E4,4.082022E4,1.5197293E4,1.0625172E4,1.48387E5,1.0332375E5,5.1310875E4,5.500453E4,1.0103982E4,3.75276E4,2.9982188E4,1.1288571E4,7.2168125E3,1.2176117E4,2.74041E4,5.6310848E4,2.3854324E4,5.620326E4,8.485966E4,3.600797E4,4.7618062E4,2.6611314E4,3.5541938E4,3.208884E4,0E0,0E0,0E0,0E0,0E0,0E0,0E0,0E0,0E0,0E0,0E0,0E0,0E0,0E0,0E0,0E0,0E0,0E0,0E0,0E0,0E0,0E0,0E0,0E0,0E0,0E0,0E0,0E0,0E0,0E0,0E0,0E0,0E0,0E0,0E0,0E0,0E0,0E0,0E0,0E0,0E0,0E0,0E0,0E0,0E0,0E0,0E0,0E0,0E0,0E0,0E0,0E0,0E0,0E0,0E0,0E0,0E0,0E0,0E0,0E0,0E0,0E0,0E0,0E0],"parents":[2147483647,0,0,1,1,2,2,3,3,4,4,5,5,6,6,7,7,8,8,9,9,10,10,11,11,12,12,13,13,14,14,15,15,16,16,17,17,18,18,19,19,20,20,21,21,22,22,23,23,24,24,25,25,26,26,27,27,28,28,29,29,30,30,31,31,32,32,33,33,34,34,35,35,36,36,37,37,38,38,39,39,40,40,41,41,42,42,43,43,44,44,45,45,46,46,47,47,48,48,49,49,50,50,51,51,52,52,53,53,54,54,55,55,56,56,57,57,58,58,59,59,60,60,61,61,62,62],"right_children":[2,4,6,8,10,12,14,16,18,20,22,24,26,28,30,32,34,36,38,40,42,44,46,48,50,52,54,56,58,60,62,64,66,68,70,72,74,76,78,80,82,84,86,88,90,92,94,96,98,100,102,104,106,108,110,112,114,116,118,120,122,124,126,-1,-1,-1,-1,-1,-1,-1,-1,-1,-1,-1,-1,-1,-1,-1,-1,-1,-1,-1,-1,-1,-1,-1,-1,-1,-1,-1,-1,-1,-1,-1,-1,-1,-1,-1,-1,-1,-1,-1,-1,-1,-1,-1,-1,-1,-1,-1,-1,-1,-1,-1,-1,-1,-1,-1,-1,-1,-1,-1,-1,-1,-1,-1,-1],"split_conditions":[-4.4523236E-1,-2.7875613E-2,1.7464261E0,9.8296875E-1,7.836174E-1,-4.5813808E-1,1.4449236E0,1.7873312E0,-2.8173107E-1,5.1654524E-1,-8.488066E-1,2.7657278E0,1.0429155E0,1.7081255E-1,-1.20592736E-1,-2.4929085E0,-2.2950342E0,5.3340757E-1,-4.913768E-1,8.6608386E-1,-1.3276122E0,5.482267E-1,-1.1338333E0,3.392962E-1,-3.1349742E-1,9.2552966E-1,1.5380683E0,1.0346073E0,2.1694353E0,-3.1366178E-1,-1.8894844E-1,2.6328478E0,-1.9639672E0,8.4923327E-1,-4.8945868E-1,7.570675E-1,2.2907324E0,5.5140585E-1,-3.739623E-1,-1.3347712E0,5.775778E-1,5.379522E-1,1.3990719E0,-7.169695E-1,-9.350777E-1,-1.2231307E0,-2.6386595E0,-1.5369893E0,5.4369575E-1,5.553812E-1,-9.579751E-1,-2.3820474E0,-2.3044167E0,-5.3035134E-1,-1.5465228E-2,1.7689246E0,1.2085805E0,8.103552E-1,-1.413427E0,9.707328E-1,1.3729711E-1,-6.1622924E-1,-2.3968897E0,1.5002586E-1,6.3628525E-1,8.924739E-1,-5.3973496E-2,1.0847895E0,1.7640544E-1,2.580078E-1,4.3381453E-2,-4.4247176E-2,6.581982E-1,3.2244036E-1,1.0222542E0,6.6315365E-1,-3.692309E-2,-2.4206607E-2,1.1953493E0,7.5726867E-1,-5.2166965E-2,1.1567348E-1,7.832087E-1,1.0211803E-1,6.0793304E-1,2.099776E-1,1.1180507E0,1.0685655E0,6.8488395E-1,7.7851826E-1,3.923776E-1,7.3192006E-1,2.64545E-1,4.0433624E-1,1.9175243E-3,1.347836E-1,-8.357482E-3,1.3235125E-1,9.3283993E-1,8.0981976E-1,-9.075369E-2,-3.056995E-2,6.2403363E-1,4.0390518E-1,-8.932285E-2,5.747385E-2,-6.786705E-2,7.273968E-1,-1.8806733E-2,9.0380085E-1,4.4594444E-2,-3.6418524E-2,1.9108295E-1,8.33753E-2,1.0620737E0,1.2655807E-1,7.808962E-1,-5.859534E-2,9.492408E-1,3.280049E-1,8.7811804E-1,3.506822E-1,1.743359E-2,1.2816789E0,7.4900603E-1,8.3032805E-1,4.3437265E-2],"split_indices":[71,94,97,93,0,123,93,162,185,22,127,162,159,94,116,7,194,162,24,93,199,145,19,168,108,97,93,0,197,87,133,56,69,1,108,178,111,38,132,158,32,163,16,67,29,12,149,171,6,71,40,147,12,138,86,120,107,150,134,94,28,45,149,0,0,0,0,0,0,0,0,0,0,0,0,0,0,0,0,0,0,0,0,0,0,0,0,0,0,0,0,0,0,0,0,0,0,0,0,0,0,0,0,0,0,0,0,0,0,0,0,0,0,0,0,0,0,0,0,0,0,0,0,0,0,0,0],"split_type":[0,0,0,0,0,0,0,0,0,0,0,0,0,0,0,0,0,0,0,0,0,0,0,0,0,0,0,0,0,0,0,0,0,0,0,0,0,0,0,0,0,0,0,0,0,0,0,0,0,0,0,0,0,0,0,0,0,0,0,0,0,0,0,0,0,0,0,0,0,0,0,0,0,0,0,0,0,0,0,0,0,0,0,0,0,0,0,0,0,0,0,0,0,0,0,0,0,0,0,0,0,0,0,0,0,0,0,0,0,0,0,0,0,0,0,0,0,0,0,0,0,0,0,0,0,0,0],"sum_hessian":[2E4,2.735E3,1.7265E4,1.472E3,1.263E3,1.5053E4,2.212E3,9.68E2,5.04E2,2.7E2,9.93E2,5.22E2,1.4531E4,1.928E3,2.84E2,6.26E2,3.42E2,4.59E2,4.5E1,2.31E2,3.9E1,7.15E2,2.78E2,4.66E2,5.6E1,1.4184E4,3.47E2,1.508E3,4.2E2,2.01E2,8.3E1,1.02E2,5.24E2,9E0,3.33E2,7.1E1,3.88E2,2.6E1,1.9E1,1.63E2,6.8E1,2.4E1,1.5E1,4.24E2,2.91E2,1.39E2,1.39E2,4.21E2,4.5E1,3.3E1,2.3E1,1.1319E4,2.865E3,3.17E2,3E1,1.213E3,2.95E2,3.92E2,2.8E1,9.4E1,1.07E2,6.3E1,2E1,9.1E1,1.1E1,1E0,5.23E2,8E0,1E0,2.09E2,1.24E2,6.7E1,4E0,3.77E2,1.1E1,1.9E1,7E0,2E0,1.7E1,1E0,1.62E2,5.8E1,1E1,1.4E1,1E1,2E0,1.3E1,2.24E2,2E2,1.22E2,1.69E2,1.07E2,3.2E1,8.1E1,5.8E1,5.6E1,3.65E2,3.9E1,6E0,2.9E1,4E0,2.1E1,2E0,2E0,1.1317E4,7.9E1,2.786E3,4E0,3.13E2,1.3E1,1.7E1,1.166E3,4.7E1,2.9E2,5E0,3.72E2,2E1,4E0,2.4E1,7.4E1,2E1,3.5E1,7.2E1,3.2E1,3.1E1,9E0,1.1E1],"tree_param":{"num_deleted":"0","num_feature":"200","num_nodes":"127","size_leaf_vector":"1"}},{"base_weights":[1.5272297E-2,3.3586346E1,-5.3044586E0,1.5698461E1,5.440539E1,-7.5073423E0,9.68312E0,5.031035E0,3.0531176E1,1.0065691E1,6.53819E1,7.463449E0,-8.074487E0,4.05379E0,4.409769E1,-2.8534265E0,1.9408815E1,9.955893E0,3.772874E1,3.1007779E0,5.4631878E1,5.5600193E1,8.68804E1,3.3188584E0,4.256379E1,-8.346938E0,3.1320653E0,-3.4489948E-1,2.0172384E1,2.7173283E1,8.471523E1,1.6166536E1,-6.375566E0,4.809441E1,1.1558929E1,7.829384E-2,4.4250935E1,2.0510462E1,4.8280052E1,-4.648107E0,2.2362272E1,1.1124824E2,3.852665E1,3.078455E1,7.201157E1,9.944963E1,5.279725E1,1.8725673E0,3.7430016E1,4.2659893E0,6.947206E1,-9.031481E0,-6.9666066E0,-8.0165493E-1,4.3002705E1,-3.2907984E0,8.596952E0,4.5045746E1,9.896169E0,2.2306723E1,8.425983E1,9.609661E1,2.9520014E1,4.6814713E-1,7.4928865E-2,6.3201375E-2,-7.28855E-2,7.54394E-1,2.7930072E-1,3.067159E-1,8.255522E-2,4.2353675E-1,-3.146763E-2,2.8083593E-1,8.963255E-1,3.8126817E-1,5.6165118E-2,6.342299E-1,3.1321272E-1,-6.424245E-2,4.112207E-1,1.0985068E-1,8.156295E-1,1.2002639E0,2.9289657E-1,4.698385E-1,-9.773265E-2,4.8544946E-1,9.618929E-2,6.14013E-1,9.8025566E-1,1.0327148E0,5.4236796E-2,2.8133526E-1,9.644354E-1,3.5372782E-1,9.258673E-3,1.4117151E-1,1.0454518E0,-2.3152215E-2,3.9396152E-1,9.107149E-1,2.757517E-1,-6.2441852E-2,-9.158956E-2,-8.2485914E-2,-4.8366595E-2,-2.728712E-2,4.4175264E-1,8.394876E-1,-6.3102106E-3,-3.479186E-2,6.838875E-1,7.192734E-2,9.2821485E-1,6.70924E-1,1.218129E-1,5.248317E-1,7.051985E-2,4.4301665E-1,1.2009006E-1,1.1109337E0,4.0185416E-1,3.6943057E-1,1.0360326E0,7.368298E-3,7.0533586E-1],"categories":[],"categories_nodes":[],"categories_segments":[],"categories_sizes":[],"default_left":[0,0,0,0,0,0,0,0,0,0,0,0,0,0,0,0,0,0,0,0,0,0,0,0,0,0,0,0,0,0,0,0,0,0,0,0,0,0,0,0,0,0,0,0,0,0,0,0,0,0,0,0,0,0,0,0,0,0,0,0,0,0,0,0,0,0,0,0,0,0,0,0,0,0,0,0,0,0,0,0,0,0,0,0,0,0,0,0,0,0,0,0,0,0,0,0,0,0,0,0,0,0,0,0,0,0,0,0,0,0,0,0,0,0,0,0,0,0,0,0,0,0,0,0,0,0,0],"id":13,"left_children":[1,3,5,7,9,11,13,15,17,19,21,23,25,27,29,31,33,35,37,39,41,43,45,47,49,51,53,55,57,59,61,63,65,67,69,71,73,75,77,79,81,83,85,87,89,91,93,95,97,99,101,103,105,107,109,111,113,115,117,119,121,123,125,-1,-1,-1,-1,-1,-1,-1,-1,-1,-1,-1,-1,-1,-1,-1,-1,-1,-1,-1,-1,-1,-1,-1,-1,-1,-1,-1,-1,-1,-1,-1,-1,-1,-1,-1,-1,-1,-1,-1,-1,-1,-1,-1,-1,-1,-1,-1,-1,-1,-1,-1,-1,-1,-1,-1,-1,-1,-1,-1,-1,-1,-1,-1,-1],"loss_changes":[3.5721385E6,1.01805575E6,5.7012506E5,2.3291456E5,6.1452425E5,1.2787769E5,4.2854784E5,9.731917E4,9.084906E4,7.80513E4,2.08195E5,7.987083E4,4.4313438E4,1.3493098E5,2.1148806E5,3.7283055E4,6.7898375E4,5.4535707E4,8.185375E4,3.2790812E4,2.6715836E4,2.8245725E5,1.29695E5,2.4251896E4,5.9474234E4,1.331775E4,5.414425E4,3.9435613E4,1.03840625E5,5.9517547E4,5.4329188E4,2.2776566E4,5.4822305E3,3.3733562E4,1.4899652E4,1.7312182E4,2.3896E4,4.570186E4,7.043281E4,1.3027359E4,4.1536934E4,1.5205781E3,1.18966875E4,1.0478781E5,1.099075E5,8.173225E4,9.094045E4,1.4999993E4,2.9817045E4,5.8711855E3,2.8256953E4,3.305125E3,1.2791016E4,2.7422564E4,5.5438465E4,1.5442935E4,4.3210414E4,8.540436E4,3.475622E4,4.5900008E4,1.5641094E4,2.9476E4,2.001655E4,0E0,0E0,0E0,0E0,0E0,0E0,0E0,0E0,0E0,0E0,0E0,0E0,0E0,0E0,0E0,0E0,0E0,0E0,0E0,0E0,0E0,0E0,0E0,0E0,0E0,0E0,0E0,0E0,0E0,0E0,0E0,0E0,0E0,0E0,0E0,0E0,0E0,0E0,0E0,0E0,0E0,0E0,0E0,0E0,0E0,0E0,0E0,0E0,0E0,0E0,0E0,0E0,0E0,0E0,0E0,0E0,0E0,0E0,0E0,0E0,0E0,0E0,0E0,0E0],"parents":[2147483647,0,0,1,1,2,2,3,3,4,4,5,5,6,6,7,7,8,8,9,9,10,10,11,11,12,12,13,13,14,14,15,15,16,16,17,17,18,18,19,19,20,20,21,21,22,22,23,23,24,24,25,25,26,26,27,27,28,28,29,29,30,30,31,31,32,32,33,33,34,34,35,35,36,36,37,37,38,38,39,39,40,40,41,41,42,42,43,43,44,44,45,45,46,46,47,47,48,48,49,49,50,50,51,51,52,52,53,53,54,54,55,55,56,56,57,57,58,58,59,59,60,60,61,61,62,62],"right_children":[2,4,6,8,10,12,14,16,18,20,22,24,26,28,30,32,34,36,38,40,42,44,46,48,50,52,54,56,58,60,62,64,66,68,70,72,74,76,78,80,82,84,86,88,90,92,94,96,98,100,102,104,106,108,110,112,114,116,118,120,122,124,126,-1,-1,-1,-1,-1,-1,-1,-1,-1,-1,-1,-1,-1,-1,-1,-1,-1,-1,-1,-1,-1,-1,-1,-1,-1,-1,-1,-1,-1,-1,-1,-1,-1,-1,-1,-1,-1,-1,-1,